nep3 3 Ga O C 
cutoff 8 4
n_max 8 8
basis_size 8 8
l_max 4 2 0
ANN 60 0
  1.0564953e-01
 -1.3654586e+00
  3.4570694e-01
  3.4476261e+00
 -1.6243811e+00
 -9.0422368e-01
  9.3009537e-01
  1.7077049e+00
 -4.8355308e-01
  2.9100151e+00
 -1.3492598e-01
 -1.1304777e+00
 -4.0378936e-02
 -1.5057193e+00
 -1.0380466e+00
 -3.1380221e-01
 -2.7827069e-01
  3.7770346e-02
  1.0753034e+00
  3.2753863e+00
 -1.7918308e-01
 -1.4700639e+00
 -5.2684289e-03
 -1.8304774e+00
  3.0910376e-01
  6.9016732e-02
  1.5488590e+00
 -5.6243515e-01
 -4.0169510e-01
 -3.5128793e-01
 -1.1197211e-02
  1.4805378e+00
  1.4816684e-01
 -6.1121747e-02
  6.7374259e-01
 -8.7153297e-03
 -1.0165730e+00
 -8.5199153e-01
 -7.2460741e-02
  3.4641396e-02
  3.3059946e-01
  1.6434313e-03
 -9.7770506e-01
 -9.6680806e-04
 -2.7514142e-03
  8.8320947e-01
 -3.8504130e-01
  1.5209128e-01
  2.4724150e+00
  2.5532422e+00
  8.4358221e-01
  1.1278487e+00
 -1.2867751e-03
 -5.2138072e-01
  5.2766430e-01
 -2.4833858e+00
  5.8141675e+00
  1.4350493e+00
  2.7355447e+00
  1.6936766e-01
 -5.7065196e-02
 -6.0024941e-01
  2.5836936e-01
  4.6578115e-01
 -2.5804049e-01
  3.8743939e+00
  1.6626451e+00
  2.9985397e+00
 -8.5392855e-03
 -5.3066009e-01
 -8.5225141e-01
 -4.6918607e-01
  2.2889194e+00
 -1.0249172e+00
  8.9937794e-01
  8.0262023e-01
 -1.0218252e-03
 -1.1715435e+00
 -2.4237130e+00
 -9.3013161e-01
 -3.0396572e-01
  9.5655274e-01
 -3.3617255e-01
  6.7735657e-02
  6.9704722e-03
 -4.5217049e-01
  2.5406229e-01
 -2.9804656e-01
 -1.2249177e+00
  1.0154103e-01
 -1.4132082e-02
  8.5286975e-01
  1.8182681e+00
  9.4313365e-01
 -3.5388481e-03
 -3.1548701e-02
 -3.2957086e-01
  6.9796628e-01
  1.5184869e+00
 -5.1031578e-01
  3.3046089e-02
  5.0501712e-03
  1.3045776e-02
  1.5169159e+00
  2.3813258e-01
  2.3950599e-03
  4.2749816e-04
  3.0595916e-03
 -1.2366244e-01
 -3.2787916e-01
 -4.4334894e-03
 -4.7487277e-03
 -1.2671999e-03
 -4.2664055e-03
 -3.9343044e-02
 -3.5763803e-01
  2.1556247e-02
  4.2521562e-03
  3.1039226e-01
 -8.6147534e-03
 -4.7526443e-03
 -1.3542583e+00
 -1.8584287e-02
 -4.5779785e-03
  5.8671707e-01
  7.6987897e-04
 -4.5190784e-01
 -1.9970266e-02
  1.0859977e-02
  4.7849640e-03
  5.5018784e-03
 -1.4750906e-02
  7.8345835e-03
 -6.3514210e-02
  2.0347296e-03
 -1.6738039e-02
  1.1010037e-02
  3.6624068e-01
  4.8031789e-01
 -5.0627846e-02
  5.1047409e-01
  3.9837873e-03
 -3.1501103e-02
  1.4486656e-02
 -6.9968235e-03
  5.3135343e-03
  5.2882861e-03
  1.8975097e-03
  4.1578612e-03
  1.0276268e-01
 -7.2913649e-03
 -1.9460931e-02
 -1.9485524e-01
 -2.5949124e-02
 -2.8715436e-03
 -8.5654790e-03
 -1.9462547e-03
 -1.4968950e-02
 -2.1651825e-03
  3.5117506e-03
 -2.6320270e-03
 -2.1442691e-02
  1.4081105e-02
  9.0807311e-02
  8.0745764e-02
 -1.4173212e-02
  2.8435329e-02
 -1.2992467e-03
 -4.4396017e-03
  1.1725926e-02
 -2.1742674e-02
  8.4528318e-03
 -1.8980969e-03
  5.8951150e-03
  3.0483063e-02
  1.3031885e-02
  1.9626472e-02
 -5.2440739e-03
 -1.1625526e-03
 -2.7446514e-02
  1.0305185e+00
  1.8142486e+00
 -1.3485291e+00
  5.4507160e-01
 -9.0504318e-01
  9.6969120e-04
  4.9532935e-01
 -3.9699972e+00
 -7.7254415e-01
  1.3669991e-01
  1.5809885e-01
  1.7145172e-01
  1.0924397e+00
  2.2715271e+00
 -5.7450149e-02
 -3.4800412e-03
  3.4057633e-03
  1.0001427e+00
 -1.0704591e-01
  1.0986768e-02
 -3.7971944e-01
 -7.3333055e-02
  4.0747374e-01
 -2.6030331e+00
  8.6824393e-01
  1.8480496e-01
 -1.6330577e+00
  1.5938641e+00
 -6.8794060e-01
 -2.0654101e+00
  1.9573395e-01
 -2.0174645e-02
  8.1785761e-02
 -1.6749814e-01
 -1.0746137e-01
 -9.4184130e-03
  2.6690757e-01
 -1.0519792e-01
 -1.1723527e+00
  1.5924301e+00
  2.9588208e-01
 -2.4869379e-03
  6.0445178e-01
  4.6067426e-01
  2.1067406e-01
 -5.7552181e-02
  1.6443994e-02
 -1.3448960e-02
 -4.0063000e-01
 -2.7136242e-03
  5.7053636e-03
  3.9362335e-03
  2.7103149e-03
 -4.4825980e-03
  6.7719212e-03
  5.0556138e-03
 -3.2189090e-03
 -2.2944822e-03
  1.7533494e-02
 -1.9620296e-03
  4.4849063e-03
  1.9714458e-02
 -8.4846485e-03
  6.0706511e-03
 -1.7879710e-02
  3.8044173e-03
 -2.8527125e-03
  1.7144039e-02
 -1.2006529e-04
 -4.6868804e-03
 -3.3888647e-03
 -6.3716033e-03
 -4.1103447e-03
  1.9670181e-02
  8.1881403e-04
  1.6728598e-03
  5.9615476e-03
  3.1153276e-03
  3.2064142e-03
 -6.5668183e-03
  6.8621784e-03
 -7.3921094e-03
  2.0101465e-02
  9.0339994e-03
 -2.3430539e-03
  6.1202794e-03
  4.4380678e-03
  2.2003520e-03
  3.6682608e-04
  8.7987194e-03
 -1.1662867e+00
  1.5749998e+00
 -1.2807199e+00
  6.7474461e-01
  1.4503269e+00
 -2.9345939e-01
 -3.3383267e+00
  8.7379897e-01
  5.0468796e-01
 -2.3495468e-01
 -2.0125425e+00
  3.6261270e+00
  5.6915015e-01
  5.8381099e-01
  6.9215633e-02
 -1.2273210e+00
  1.3771491e-01
  2.9369900e-01
  2.6488709e-01
  1.6347240e+00
 -2.5403084e-02
  5.3320122e-01
  9.1221529e-01
  1.8753800e+00
  1.8027886e+00
  1.4744427e+00
 -7.6008141e-01
  1.0487401e-03
  1.2826296e+00
 -2.1488054e+00
 -1.7977877e-02
 -3.3310303e-01
 -4.6493095e-01
  1.7787635e-01
 -1.1342580e-02
  1.6234980e+00
  2.9182911e+00
 -1.0336225e+00
 -3.0810730e+00
  1.9179986e+00
 -1.4512179e+00
  1.6742964e+00
 -2.8435031e-02
  1.1142764e+00
 -4.5045353e-03
  9.6177000e-01
 -6.4923042e-01
 -9.3834817e-01
 -1.9784162e-02
 -1.4297341e-01
  7.3136044e-01
  1.4117296e-01
 -1.4429060e-01
  6.0172284e-01
  6.5436000e-01
 -1.8049695e-02
 -1.9203493e-01
  2.8121803e-02
  1.5730886e-01
  1.0466257e+00
 -6.4598787e-01
 -1.3030791e+00
  9.3523800e-01
 -2.5782827e-01
  3.9372835e-03
 -2.3573043e-02
  2.3632510e+00
  2.2640622e-01
 -4.2500520e-01
 -3.0462530e-01
 -9.2583876e-03
  1.3681227e+00
 -6.7922827e-03
 -2.8202584e-01
 -2.9909474e-01
  3.3612993e-01
  1.4725021e+00
  5.5357989e-02
  8.9034206e-01
  1.6057214e+00
  1.4405216e-01
 -2.6089573e-01
  3.4218675e-01
 -7.4835587e-01
  2.0520439e+00
 -3.9779130e-01
  4.4823742e-01
  1.2471892e+00
  1.6937114e+00
  4.1290724e-01
  2.5493776e-02
 -2.6859920e+00
 -4.2540583e-01
 -8.4510213e-01
  1.9301151e-01
 -1.5232002e+00
  2.2933917e-01
 -2.2428517e-01
 -6.9119185e-01
 -5.9738648e-03
  6.8217060e-03
  2.8304400e-02
 -5.1878873e-02
 -6.7537183e-01
 -4.7888156e-04
 -3.2719210e-02
 -1.9708357e-03
 -3.2110754e-02
  5.1148076e-02
 -3.7709202e-03
 -7.9994807e-03
  1.6228980e-01
  3.7438322e-03
  8.8797741e-02
 -1.0014230e-02
  2.8730836e-04
 -3.6307194e-03
  1.6210053e-02
 -4.5941904e-02
  1.1249399e-02
 -9.2590303e-04
  8.2449481e-02
  2.2619961e-02
  4.5637963e-03
 -2.7178451e-01
 -3.1469669e-02
  2.4674030e-02
 -2.0380411e-02
 -8.8361595e-03
 -7.9992749e-03
 -1.8771764e-02
 -4.1381302e-03
  4.7183321e-03
  1.6766706e-02
  5.3473753e-03
 -7.7674466e-01
  2.1421326e-02
 -7.7033028e-02
  9.0236604e-01
 -8.0631381e-01
 -8.7471199e-01
 -3.7756199e-01
 -7.9800487e-01
 -9.5438898e-01
 -8.5549128e-01
 -1.7155575e-02
 -3.1584367e-02
  4.1327825e+00
  4.6707419e-01
 -1.7591519e+00
  2.0243277e-01
  6.5638006e-01
  2.2968103e-01
 -3.6942840e-01
 -1.9554456e+00
  2.5071599e+00
  1.1817291e+00
  1.2230834e+00
 -1.6085197e-01
  3.2829240e-01
 -6.8301320e-01
  4.7039837e-01
  6.2159139e-01
  4.1079070e-02
  4.0663105e-01
  1.2400262e-03
  1.9835807e-01
 -5.2013206e-01
  5.1257603e-02
  1.6170057e+00
 -1.6836977e-01
 -1.3040429e-01
 -6.9936819e-02
 -1.1104845e-01
 -5.9595302e-02
 -1.4731178e-02
  3.3161689e-02
  2.2030137e-01
  1.1243175e+00
 -9.3369270e-03
  8.2831047e-02
  2.2182764e-01
 -1.2424439e+00
 -2.6261383e-01
  6.4056712e-01
 -1.2710176e+00
  4.1871238e+00
 -2.1000944e-01
  1.8934040e+00
 -3.7599841e-01
  3.6193784e-03
  2.2885587e+00
  1.2728058e-01
  4.3624294e-01
  1.6998535e+00
  8.0586725e-01
 -7.6165751e-02
 -1.8328272e-01
  1.5744134e+00
  6.5224744e-02
  4.0796456e+00
 -8.2343292e-01
 -1.0639111e+00
  9.0923238e-01
 -3.0689633e+00
  4.7704658e-01
  4.2662412e-01
  2.1216347e+00
 -3.4245542e-01
 -8.7298489e-01
 -4.8739038e-02
 -7.6843303e-01
  2.5565856e+00
 -2.4884405e+00
  7.8894990e-03
 -2.6173279e-01
  2.9678853e+00
  4.6153623e-01
 -2.9080937e+00
  9.1386265e-01
  4.2067406e-01
 -8.2781351e-01
  2.3056455e+00
  9.7815621e-01
  5.2028593e-02
 -1.2649236e+00
  2.2952577e-01
  9.8025566e-01
  7.5832731e-01
  9.7975773e-01
  3.7453320e-02
  2.8661849e+00
 -8.0205011e-01
 -1.4047111e+00
  3.7084093e+00
  1.6591847e-02
  3.4465721e-01
 -1.9508103e+00
  1.4873126e-02
 -6.2570220e-01
  6.6755587e-01
  1.3501928e-03
  5.8618957e-01
 -7.5522059e-01
  9.3086071e-02
  1.9030407e-01
  3.7245926e-02
  1.0230162e+00
  6.5801567e-01
 -1.5393743e-02
  3.1548381e-01
 -1.1492232e+00
 -2.4652448e+00
 -2.8113313e+00
  1.5563848e+00
  7.1431103e-05
 -8.7097593e-02
  1.4782470e-01
 -2.1048210e+00
  9.2077470e-01
 -3.3069849e-02
 -3.1312039e+00
 -1.3801022e+00
 -2.1379100e-01
 -1.7058836e-01
 -6.5027314e-01
 -3.1056970e-01
 -2.0789003e+00
  1.1301316e+00
  2.0130203e+00
  2.0458190e+00
  4.5913939e+00
 -4.2183292e-01
 -3.3977447e+00
  2.8054178e+00
  1.5099508e+00
  3.5606347e-02
  4.1733122e+00
 -1.9308449e+00
  6.0940117e-01
  2.3521636e+00
 -2.4169232e-01
  1.6291291e+00
 -4.5558587e-02
 -1.9777256e+00
 -9.6051339e-03
 -7.0325889e-02
  1.2388117e-01
 -6.7893863e-01
  1.8321844e+00
 -5.6767219e-01
 -1.3691775e+00
  4.9392885e-01
 -8.0564076e-01
  1.6389786e-01
  2.0178640e-02
 -1.3712338e+00
 -1.7045462e+00
 -6.9673583e-02
  1.8317648e+00
  3.7076753e-01
 -3.4162309e-02
 -6.8577510e-01
 -4.5975041e+00
  1.1073344e+00
 -1.5102109e-02
  6.7786515e-02
 -1.4432275e+00
 -1.2469115e+00
 -5.5823022e-01
  3.5837951e-01
  9.6440047e-01
 -1.0460354e+00
  7.5655335e-01
  1.6472507e-01
  1.0632001e-02
 -3.3264770e-03
  1.3402174e-01
  9.5176518e-01
  1.0106996e-01
 -1.0095823e-01
 -1.8820267e-02
 -2.3158552e-01
  8.0355078e-01
 -7.5822257e-02
 -1.1155657e-01
 -1.3322406e-03
 -2.1225594e-02
  7.1696872e-03
  2.4767675e-01
  1.1632614e-02
 -1.8072361e-03
 -1.3794201e-02
 -6.4204055e-01
 -3.7982311e-02
 -5.3835213e-01
 -3.0978225e-02
  1.6907429e-02
  1.8648102e-03
 -3.8064143e-01
 -4.5489292e-03
 -1.7689969e-01
 -7.6671970e-01
  2.3225620e+00
  3.5955630e-02
  5.0459191e-02
  1.8979749e-02
 -3.3112504e-02
 -1.4775504e+00
 -2.3708213e-03
  3.7036560e-04
  3.4914955e-01
 -1.1826870e-01
  3.2622150e-01
  4.3674421e-02
  1.1184286e-02
  1.9423279e-03
 -3.0205734e-03
  1.1810894e-02
 -1.1165531e-02
 -1.9627625e-01
 -1.1257956e+00
 -1.5061381e+00
 -7.8725135e-01
  2.6207635e+00
 -1.3983663e+00
  1.2169703e+00
 -6.4719594e-01
  1.5508808e-01
  2.8061159e+00
  1.0110531e+00
 -3.2581136e-01
  1.8685463e-01
  2.3241928e+00
 -1.6807536e+00
 -4.8779300e-03
 -2.6410294e+00
 -5.4119617e-01
  1.0229501e-01
 -2.2176766e-01
 -4.0855876e-01
 -2.9378328e-01
 -4.0652681e-02
 -1.2369940e+00
 -2.8564340e-01
 -1.3063167e+00
 -2.3241601e+00
  1.0123606e+00
 -7.4257481e-01
  2.0241515e-01
  3.7599695e-01
  6.1347508e-01
 -1.8761230e-01
 -3.6559013e-01
 -3.4353822e-01
  1.9128766e-02
 -3.1107011e-01
 -1.8839553e-03
  7.3010892e-01
  1.0951453e+00
  4.9883422e-01
  1.0683887e+00
 -4.4866425e-01
 -6.5899390e-01
  4.0007392e-01
  9.4275221e-02
 -1.6606703e+00
  1.4496887e+00
 -8.1385744e-01
 -2.5707242e+00
 -2.0461094e+00
 -7.1484303e-01
  2.7607133e+00
 -1.5145022e+00
  3.1059636e-02
  4.5723787e-01
  2.5950377e+00
 -2.7237442e-01
 -6.3601169e-03
 -4.9517223e-01
 -8.7434933e-02
 -7.7653974e-02
  3.4749383e-01
  1.0362200e+00
 -9.7474828e-02
 -6.9404161e-01
 -1.5385989e+00
  7.4548973e-04
  1.8668145e+00
 -5.7048941e-01
  4.1454387e+00
 -1.1678620e-01
  1.4309282e+00
  1.3339764e-01
 -3.0496314e-01
  1.9681818e+00
 -1.4477621e-01
 -6.3672447e-01
 -6.4807165e-01
 -2.1809659e+00
 -5.3882688e-01
 -5.6749034e-01
 -5.4764128e-01
 -1.1358861e+00
  4.4013315e-01
  2.3459289e+00
  1.4096472e-01
 -1.3144932e+00
  2.6996045e+00
 -1.1411430e+00
 -2.6547019e+00
 -3.9810461e-01
 -5.8744818e-01
 -1.1044503e+00
 -6.6652995e-01
  2.3142418e-01
  2.7789469e+00
  4.1925073e+00
 -2.0826247e+00
 -6.9013160e-01
 -1.5574862e+00
  1.9118732e+00
  2.8443203e+00
  1.0857263e+00
 -1.9694211e-02
  1.1091433e+00
  7.0577747e-01
 -9.8160064e-01
 -1.3923187e+00
 -8.8961834e-01
  1.1966696e+00
  5.8806127e-01
  9.8530388e-01
 -3.2265012e+00
 -1.5305972e-02
 -6.3304454e-01
  2.4990405e-01
 -3.2238517e-02
  1.4139459e+00
 -5.3448421e-01
 -8.7670398e-01
  1.5405791e+00
  2.5230601e-01
 -3.6268117e+00
  1.5920228e-01
 -1.2703355e-01
 -1.0229833e+00
  3.5899425e-01
  1.2001677e+00
  1.6686834e+00
 -1.0280449e+00
 -2.5869992e-01
 -6.2248898e-01
 -6.2852162e-01
  3.6944716e+00
 -3.6191237e-03
  1.3090404e+00
  6.1929873e-03
  2.4764705e-01
 -2.2027460e-03
  1.0863462e-01
 -1.9613839e+00
 -1.2552149e+00
  1.4592550e+00
 -1.1897118e-02
 -2.6554920e-02
 -3.2130228e-03
 -1.7486239e-03
 -4.0663376e-02
  1.0095146e-01
  9.1122976e-03
  2.3385547e-03
 -1.1098142e-02
 -1.3258897e-01
 -9.2288852e-03
 -9.3084775e-02
  2.9345835e-03
  2.4058210e-02
  3.9651519e-01
  2.2071268e-04
  9.0923514e-03
 -5.9972054e-01
  4.4751726e-03
 -3.6806494e-02
  1.5830904e-01
 -2.1083670e+00
 -2.6558517e-02
  2.5442785e-03
  1.0888985e-02
  1.8089081e-01
 -7.7733170e-04
  2.8988886e-01
  1.9880785e-02
  6.1153495e-01
  2.6808776e-02
 -3.7660113e-01
  7.9999350e-02
  9.0363855e-03
 -3.8207702e-03
  1.5973147e-02
 -2.9324669e-01
 -1.0582155e+00
 -2.2102153e+00
 -5.8140016e-01
 -1.9048166e+00
  2.3781879e+00
  1.2478302e-02
  6.2140960e-01
  4.8563930e-01
  3.4282938e-01
  3.0270830e-01
  8.4933001e-01
  4.3871871e-01
 -1.3227307e+00
 -6.4131496e-03
  9.0593785e-02
  6.2054855e-01
  3.1856028e-03
 -8.3123130e-01
  2.1443648e+00
 -1.2718568e+00
 -1.7739806e-01
  1.0528042e-02
 -1.6142426e-02
 -2.7345729e-01
 -4.9674135e-01
  1.3885476e-03
 -1.6116445e+00
 -1.9008776e+00
  2.1133394e+00
 -1.3383102e-02
  5.5232036e-01
 -5.3366069e-02
 -5.8676249e-01
 -6.8995774e-02
 -9.2589188e-01
  1.3224217e+00
 -2.0622723e-02
 -1.2953612e+00
  4.1599713e-02
 -2.8170832e-03
  1.0625292e+00
 -1.3131183e-01
  1.2903836e+00
 -3.8912556e-01
  9.9147516e-01
 -1.8325549e-01
  2.8152325e+00
 -1.9573663e+00
  9.3121225e-01
 -8.8649982e-01
 -3.8431349e+00
  3.6767960e-01
  2.8846021e+00
  2.8126197e+00
 -2.6666458e+00
 -8.3966173e-02
 -2.2303607e+00
 -1.6347420e-01
 -6.3679278e-02
  1.2381740e+00
 -1.0638534e+00
  1.7846434e-01
  1.0748397e+00
 -1.0181843e+00
  8.7062573e-01
 -6.7307144e-01
  3.4060243e-01
 -6.7624998e-01
  1.6793413e-01
 -8.5073620e-02
 -1.2241131e+00
  1.1384801e-03
 -7.5089866e-01
  1.8950820e-01
  1.9907558e-01
  1.3648378e+00
 -5.0873429e-01
  2.0155933e+00
  6.6245520e-01
 -7.5507857e-02
  4.5850599e-01
  5.9611000e-02
  1.8890357e-02
 -2.5290018e-01
  3.4666190e-01
  4.2883933e-01
 -6.2166315e-01
 -6.8572068e-01
  5.0471872e-01
 -1.7605894e-03
 -8.8136401e-03
  6.3154453e-01
 -1.3961454e-01
  8.1230527e-01
 -1.9411735e-02
  6.5141525e-03
 -1.1219908e-02
 -7.8568816e-02
 -5.4253160e-04
 -5.8719313e-01
 -1.8418178e-02
 -3.3582922e-03
  1.8954937e-03
 -7.1491515e-03
  1.6802629e-03
 -6.9711907e-03
 -3.0487511e-01
  1.0795349e-02
 -9.3825394e-03
 -1.0294966e-02
 -1.7124541e-02
 -1.4520613e-02
 -5.3515010e-02
 -1.0709611e-02
 -1.1919893e-02
 -1.3780679e-02
 -5.8151032e-03
 -2.7869614e-03
 -3.5978633e-01
 -1.0123775e-02
 -6.6182967e-03
 -2.2520479e-03
  1.3336215e-02
 -7.9639442e-03
  7.6518287e-03
 -1.1777662e-02
 -1.6885733e-03
 -1.7590401e-01
 -3.3785352e-03
 -1.3556682e-01
 -1.5860191e-05
  8.3679461e-04
 -4.1365852e-03
  5.5355267e-03
 -1.1859943e+00
  1.5671545e+00
 -1.4236248e-03
 -7.0222557e-02
  6.3217378e-01
  1.4095242e-02
 -1.3482199e-02
 -9.3836181e-02
  3.5319102e+00
  2.5427423e-02
  3.1846855e-04
  2.5442243e-02
  6.8711117e-04
  3.9502648e-03
 -4.9336872e-01
  5.0192238e-03
  2.1129164e-03
 -3.9646544e-02
 -5.3142065e-01
 -7.2698747e-03
 -1.7460339e+00
 -3.0516176e+00
 -1.3134229e-03
 -1.0156393e-02
 -8.3545709e-01
 -4.6083629e-03
 -8.0457628e-03
  1.0684616e-01
 -1.3533163e+00
  7.3141342e-01
 -9.1504660e-03
 -1.0666558e+00
 -9.9141872e-04
 -5.4067922e-01
 -1.3860773e-01
 -5.7428870e-03
  3.2979921e-02
 -6.1448205e-01
  5.1615527e-03
 -8.5188840e-03
 -3.3405674e-01
 -1.0692105e+00
  5.9483983e-03
 -2.6913932e-02
 -1.1065960e-02
  3.4919667e+00
 -1.1927739e+00
  6.7927408e-01
 -2.0031180e+00
  6.6644406e-01
 -1.6061764e-03
 -4.5070198e-01
 -1.0476843e-01
  1.4844918e+00
  2.4569378e+00
 -1.0602026e+00
 -1.8457690e+00
 -1.6755991e+00
 -1.2491450e+00
  1.5723605e-01
 -2.2770748e+00
 -1.5624794e-01
  1.5248623e+00
  5.5956829e-01
  1.1039485e+00
  6.3746005e-01
 -1.3311769e+00
 -2.1400831e+00
  4.2714903e-01
  1.2085032e+00
  3.5096557e+00
  1.6622815e+00
  5.7110868e-02
  2.1561044e-01
 -2.2630916e+00
  3.8609889e-01
  1.5866729e+00
  2.3635314e+00
  7.4400824e-01
  6.3485794e-02
  1.1042476e+00
 -2.1301739e+00
  4.3654352e-01
 -4.8633516e-01
  5.0018251e-01
 -1.8335961e-01
  1.8025280e+00
 -9.9235016e-01
 -3.7378700e+00
 -6.3473529e-01
 -2.0653062e+00
 -9.9217772e-01
  8.6970953e-03
  6.0038812e-02
  6.1157942e-01
  5.6209123e-01
 -3.5948303e-02
 -3.0713015e+00
 -2.6119628e+00
  1.1609493e+00
  1.2348047e+00
  9.2215347e-01
 -1.6510408e-01
  1.9652722e+00
  3.2425022e-01
 -1.6047069e+00
 -4.7556488e-03
 -3.2453471e-01
  2.4799237e+00
 -4.4865736e-01
 -2.2243463e-02
 -6.4670175e-02
 -4.9376810e-01
  8.4184073e-03
 -2.2233470e-01
  6.1754239e-01
  1.1070181e+00
  1.5626740e+00
 -1.7832508e+00
 -7.1108037e-01
  1.7695612e+00
  9.1412282e-01
  1.3057395e+00
  2.3876202e+00
  1.6320926e-01
  1.3974457e+00
  2.3154643e+00
 -6.2285906e-01
 -7.3299766e-01
 -8.2539254e-01
 -1.2630863e+00
  4.5785424e-01
  1.5201464e+00
 -2.6934552e-01
  1.4673963e-01
 -2.0590270e+00
 -2.8515458e+00
 -9.6344316e-01
  9.6965182e-01
 -1.6558683e-01
 -3.3982213e+00
 -2.7414281e+00
  4.0718904e-01
 -2.7394948e+00
 -4.7921995e-03
  1.3084912e+00
  1.4971510e+00
 -7.5617665e-01
  1.1287431e+00
  2.2378467e-01
 -1.4186105e+00
 -1.4014159e+00
 -2.8899407e-01
 -1.0626747e-01
  1.0780668e-02
  3.8171679e-01
 -3.0233705e-01
  3.0708110e-01
  4.0957594e-01
  3.1856841e-01
  3.0436948e-01
  5.8103222e-02
  1.2951279e+00
  1.9974295e+00
  2.1045754e+00
  2.6911452e+00
  1.2010763e+00
  3.8480285e-01
  6.5020889e-01
 -9.7060609e-01
  1.6155254e-02
  7.1697956e-01
  9.3476766e-01
  4.6849647e-01
  1.3077836e+00
 -2.3917434e-01
 -5.7765648e-02
  5.0407118e-01
 -1.2306845e+00
 -9.9664569e-01
 -1.1460484e+00
  3.7190373e+00
  1.0092621e+00
 -5.0748026e-01
  2.0119188e+00
  1.8158222e+00
  1.4829831e+00
 -7.5785957e-02
 -1.4233385e-01
  5.9394485e-01
  4.1294489e+00
 -7.3406661e-01
 -9.2005402e-02
 -4.0997099e-02
 -9.7165324e-02
  5.8916008e-01
 -1.1917449e+00
 -2.4004965e+00
  2.2939847e-01
 -2.3187299e-01
 -4.2872448e-03
  1.5773751e-02
 -1.5348327e-01
  1.7950070e+00
 -2.0123961e+00
 -8.3421624e-01
 -1.4469069e+00
  1.5769485e+00
 -1.0664780e-01
  1.3768722e+00
  2.0441703e-01
  7.6359831e-02
  1.5066568e+00
 -1.9320910e+00
 -6.9124915e-02
 -3.0399823e-01
 -5.5731870e-02
 -3.7309998e-01
  8.4208637e-01
 -9.1106981e-01
  1.8959842e+00
 -7.9432584e-02
  7.6550478e-03
  4.9649940e+00
  3.9878424e-02
 -1.0121289e+00
 -3.7735605e-01
 -1.3681103e+00
 -1.4327203e+00
  3.2727912e-02
 -4.6433321e-01
  1.2345514e+00
 -9.7987348e-01
 -2.3937478e+00
 -1.1610172e-02
 -2.8175032e-01
 -1.0925266e+00
 -1.3565661e-02
  2.4278711e-03
 -9.1229449e-04
  2.0759317e-01
 -2.9378556e-02
  6.4846560e-02
  2.7762368e-02
  1.8978824e-01
 -1.3973090e-01
  3.7835902e-03
 -1.7749906e-01
 -6.7850739e-02
  1.8362203e+00
  4.7407858e-03
 -3.4440827e-01
  2.0098312e+00
  1.1794213e-03
 -1.0036634e-02
  4.6325868e-04
 -1.5666325e+00
 -2.7451703e-02
  1.3015236e-01
 -1.1915849e+00
 -9.4641173e-01
  2.4645008e-02
  4.8919000e-02
 -1.0796002e-02
  4.3657009e-02
  4.3749812e-01
  1.9007137e-01
 -7.2094899e-01
  5.0462876e-03
 -1.0763509e-04
  9.6280241e-01
  1.0188170e-01
  1.3968217e-02
  1.2701873e+00
 -1.5156134e+00
 -4.6161181e-01
 -1.1568373e+00
  3.4728295e-01
 -1.6529402e+00
 -9.1008329e-01
 -5.0699508e-01
 -1.6711140e+00
 -7.6641726e-01
  2.1609780e-01
  7.2634023e-01
  2.1220163e-01
  1.5847802e-02
  1.7226882e+00
 -2.9515073e-01
  5.2563643e-01
 -1.2384783e-01
  7.0704389e-03
 -4.1143459e-01
 -9.2042816e-01
  1.3690925e+00
 -4.1063186e-02
 -1.3940875e-01
  1.2316775e+00
  6.9903630e-01
 -1.1513044e+00
 -7.6636714e-03
  3.6947775e-01
 -5.1057243e-01
  2.7578756e-01
 -1.9685586e-01
 -2.8926830e-03
  1.8349205e+00
 -1.3003743e-01
  2.9668968e-02
  3.3123827e-01
 -4.2625298e-03
  1.5379453e+00
 -9.7613847e-03
  2.1232365e-01
  6.6308492e-01
  1.4212719e+00
  1.9819143e+00
 -1.4086805e-01
 -1.1913464e+00
 -1.2645847e+00
  2.6082847e+00
 -1.4650432e+00
  2.5171708e-02
  9.9031144e-01
 -8.0499041e-01
 -1.7909707e-01
 -1.8680199e+00
  1.1090276e-01
 -5.8139865e-03
  6.1573954e-03
  2.6223729e-03
  6.1808459e-02
  1.0617622e+00
 -7.0798345e-02
  6.9356012e-01
 -2.7079251e-01
  1.0625237e-02
  2.4187714e-02
  3.9884737e-01
  5.1686019e-01
 -6.8626186e-04
  5.5826384e-01
  1.9248207e+00
 -1.9405204e-01
  1.9733092e-01
  4.2105500e-02
  5.4401411e-03
  7.7158257e-02
 -4.6298451e+00
  2.6212177e-01
 -1.0471843e-02
  1.2436310e+00
  7.1693480e-01
  2.8449050e-01
 -2.7999016e-03
  1.5786259e+00
  1.5915507e+00
 -1.4723991e+00
 -1.8683460e-01
 -1.1565888e-01
  2.0304944e-02
  8.0490261e-03
 -3.4775580e-03
 -2.1397856e-03
  1.4772960e-03
 -1.4658323e-02
 -1.5777577e-02
  3.2016695e-03
 -1.7972186e-02
 -1.0879196e-02
  1.1452229e-02
 -2.5383143e-02
  5.4553044e-03
  1.3998308e-02
 -3.1521969e-02
 -1.3775181e-02
  1.2282502e-02
  3.9844647e-01
 -1.7528100e-02
 -5.5550402e-03
  8.7957031e-01
  3.5014383e-03
  3.0314836e-03
 -2.2658256e-03
  2.5114054e-03
  9.7007886e-02
  3.0107062e-02
 -1.8747827e-02
 -4.0960204e-02
 -9.5242467e-03
 -2.3239665e-03
 -1.3107334e-02
 -7.0414841e-03
  1.2971698e-03
 -4.4629835e-03
  7.6712086e-03
  2.5909450e-03
  3.9872713e-03
  1.4509052e-02
 -5.1322943e-03
  4.6104481e-03
 -1.3073495e-02
 -1.9370613e-03
  3.9135341e-02
  4.2595514e-03
 -1.8068317e-01
  1.7598890e-02
  2.0971665e-01
  3.1734788e-01
 -2.2222328e+00
 -2.7810913e-01
  2.4116394e-01
  1.7440334e-01
 -1.7029573e-01
 -3.6596739e-01
  1.1757343e-01
  6.5168059e-01
 -1.1430005e+00
  5.2705802e-02
  4.2869434e-02
  4.8998258e-01
 -1.2911383e+00
 -6.8070680e-01
  4.1524288e-01
 -1.1236341e+00
 -6.4994848e-01
 -1.3037694e+00
  6.0685974e-01
  1.3178124e-01
 -3.4510714e-01
 -1.2703335e-01
  3.5682961e-02
  2.3624225e-02
  3.7094295e-01
 -3.1834364e-01
 -5.3423714e-02
 -2.0651762e+00
  1.8056704e-01
  6.2632416e-03
  1.1480258e+00
 -1.7802204e-01
  3.5588625e-01
  3.3588552e-01
  1.6132370e-01
  2.8329508e-02
 -1.6438431e-01
  4.1005364e-01
  1.0821749e-02
 -3.9002076e-01
 -2.0704442e-01
 -8.5636336e-01
  1.1855483e-01
 -7.4321277e-02
 -1.5272585e+00
  2.9718161e-01
 -2.0860229e-01
  2.2451645e-03
 -5.0536156e-01
 -1.8133962e-01
  4.8550144e-01
  5.5506897e-01
 -1.0944162e-01
  1.7288830e-02
  9.7907804e-02
 -2.0415449e-01
  9.1030098e-02
 -1.3351452e-03
  1.5417065e-03
  4.1977304e-01
  2.9622138e-01
 -6.5111709e-03
 -1.2838984e-01
 -1.2521188e-01
 -2.3357305e-03
  1.2695430e-01
 -1.7969738e+00
 -3.3228332e-03
  7.2356319e-01
  5.6384045e-01
 -5.0290239e-01
  1.4607659e-02
 -1.1722283e-02
 -1.3264352e-02
  3.7611473e-02
  4.6264222e-03
  3.3568263e-01
  9.3113691e-01
  4.4140570e-02
 -4.8057461e-01
 -3.6308146e-03
  1.7620122e-02
 -1.5515374e-01
 -5.8857627e-02
  1.1407549e-02
  2.0077666e-03
  1.2880762e+00
 -1.9302087e+00
 -8.4018189e-01
  1.3690088e+00
 -5.2635646e-01
 -6.3604325e-01
 -2.0672035e+00
  1.3878176e+00
 -4.8949391e-02
  1.5987054e+00
 -1.3831071e+00
 -1.2135324e+00
  1.8330275e+00
  2.7096003e-01
  1.4610459e+00
 -8.5467839e-01
 -9.2689055e-01
  2.0813944e+00
 -6.9947690e-02
 -7.6190270e-02
 -1.8316503e+00
  9.4842575e-02
  4.5530728e-01
  1.6537938e-01
 -1.2478417e-02
 -1.6403314e+00
  1.9942276e+00
 -5.2589995e-01
 -3.4708083e-01
 -4.4968444e-01
 -7.3597205e-01
 -1.1323377e-01
  1.1467725e+00
  2.7483737e-01
  9.5502973e-01
 -6.0931540e-01
  7.3421937e-01
 -9.0886569e-01
 -1.8791845e-01
 -1.3648168e+00
  2.3032358e-01
 -4.5092815e-01
 -1.0064653e+00
  1.5989648e-01
 -1.3770661e+00
 -8.0724206e-04
  7.8858685e-01
 -4.4125620e-02
  1.1176288e-01
  4.2802474e-01
 -3.0783516e-01
  1.8404032e-01
 -5.9616184e-01
  1.3890928e+00
  4.4729204e+00
  5.3968458e-03
  2.1846145e-03
  4.0806998e-02
 -4.5353364e-02
  7.0910238e-02
  8.8604547e-02
 -1.0002974e+00
 -1.3038307e-02
  5.4177153e-01
  9.5265681e-01
  2.5529039e-01
 -1.1743721e-01
  1.5331519e+00
  1.7826855e-02
  6.8616718e-01
  3.7414014e-01
 -2.1125361e-01
 -1.1632317e-03
  7.0143782e-02
  9.2265618e-01
  3.9968917e-01
  6.0504880e-02
 -7.0118147e-01
  7.3660328e-03
 -1.2145670e-01
 -5.8557559e-03
 -1.3243103e-01
 -3.3089088e-03
 -1.5631868e-01
  2.9437823e-02
 -2.3993251e-01
 -9.2011811e-03
 -7.7639390e-03
  3.9190990e-03
 -1.2881084e-02
 -1.6467410e+00
  1.2588575e+00
  7.9216219e-02
 -1.2421453e+00
  2.4002044e-01
  3.4147531e-02
  5.2735221e-01
 -2.9834059e-01
 -1.1718423e-01
 -1.2585132e+00
 -1.0574431e-01
  9.6759811e-02
  5.2817266e-02
  7.3608643e-01
  4.1415665e-01
 -1.5604310e+00
 -5.8353972e-02
 -2.0310700e-01
 -1.6665173e-01
  9.4346434e-01
 -1.0240772e-02
 -4.0824243e-01
 -6.3364908e-02
 -4.7007507e-01
 -9.3424690e-01
  7.6792377e-01
 -3.3346567e-02
  4.9529549e-01
 -3.4445163e-02
  3.1587300e-01
 -9.6302740e-02
 -2.1615831e-02
  7.2320257e-03
  5.8256540e-02
  3.4403366e-01
  6.3343264e-02
 -1.0266376e-01
 -9.8268259e-01
  2.5489066e+00
  4.8627980e-02
  3.0629873e-01
 -1.2484053e-03
 -1.3126044e-02
  4.5387018e-03
 -7.1366937e-03
  5.5010104e+00
 -7.5165117e-01
 -1.1013309e+00
  3.8620036e+00
 -7.1248251e-01
 -2.1251245e+00
 -3.7652767e+00
  3.2219334e+00
 -1.9584371e+00
 -9.5366063e-03
 -1.0809777e-03
 -1.1430741e-02
  1.4211679e-01
  3.5548756e-01
  1.0228637e-03
  7.7158287e-03
 -2.7508757e-01
 -1.9572762e+00
  1.3557683e-02
  1.8123969e+00
 -1.6270082e-02
  1.4422882e+00
 -2.7234171e-02
  1.5261455e-01
  1.3906909e-02
 -1.5408896e-01
 -1.8964151e-01
  1.3837023e-01
  3.0943291e-02
  1.2441489e+00
 -3.9759908e-02
  5.1264733e-01
  1.0124405e-03
  2.4571770e-01
 -6.6706790e-03
  1.4332217e-03
 -4.1979853e-02
  1.5318486e-01
 -7.1329331e-01
  9.0287876e-01
  1.2631528e-01
  1.0195577e+00
 -3.0089647e-01
 -3.1400481e-01
  4.3597622e-03
 -4.8443861e+00
 -2.6679938e+00
  2.3160388e+00
 -6.8120199e-01
  8.4287785e-03
 -1.7655157e+00
 -3.9061242e-01
 -4.7953483e-03
 -9.3573952e-01
  1.4170232e+00
  3.8441941e-02
 -1.7826573e+00
 -7.4894458e-01
  8.4121847e-01
  4.8495010e-01
 -2.4997098e+00
 -1.1865295e+00
  1.1804649e+00
  2.0447471e+00
  2.7405131e-01
 -4.3479887e-01
 -2.0339979e-01
 -3.5695574e-01
  9.8286331e-01
  3.3642003e-01
 -1.3154081e-01
  2.1608528e-01
  5.7556373e-01
 -4.1744202e-01
 -4.0595911e-02
 -2.2532330e-01
 -6.7790484e-01
  3.6727380e-02
  3.1557400e+00
  4.5418870e-01
 -9.9536572e-03
  4.7575060e-02
 -1.0670116e-01
 -8.2140625e-01
 -2.6549411e-01
 -1.2101116e+00
 -1.2412202e+00
  6.2771926e+00
 -2.3318890e-03
 -2.1357672e-01
 -2.2410248e-01
 -3.2096335e-01
 -2.3442030e+00
  1.3795685e+00
 -1.2404303e-02
  1.2001436e+00
 -1.1128862e+00
  1.5710436e-03
  4.4427404e-01
  3.1904442e+00
  1.4551290e+00
  2.4465902e+00
 -8.0440473e-03
  1.5077143e-02
 -8.7542880e-01
 -5.2519329e-03
  2.0896804e-02
  2.1374710e-01
  2.5022640e+00
  2.7317657e+00
  6.0867608e-01
 -6.2018359e-01
  4.6550266e-02
 -9.4843787e-01
  1.4837077e-01
  2.8734127e-02
 -2.2603462e-03
  5.9846419e-01
 -4.3935537e-01
 -5.3030953e-02
  3.6866851e-03
  7.3733115e-01
  2.1217830e-01
 -1.6767792e+00
 -1.0337448e+00
  5.8628368e-01
  1.9979516e+00
 -8.9187735e-01
  1.9953482e-02
  6.8305237e-03
 -8.3632845e-01
  1.0283577e+00
  2.5474876e-01
  1.0581368e-02
  1.8851595e-02
 -1.1572059e+00
 -1.2631358e+00
  2.4909778e+00
 -2.1165495e-01
 -1.6294971e-01
  3.5449965e+00
  9.8670983e-01
 -1.5996258e+00
  2.2659605e+00
  9.6060622e-01
 -3.2935492e-03
 -1.9620076e-01
  9.7825835e-03
 -8.6600155e-01
 -1.0206108e+00
  2.5557635e+00
  1.5544709e-02
 -1.2288471e-01
  5.3784192e-01
  9.8590113e-02
  5.9290749e-01
  6.1377448e-01
 -8.0155418e-04
 -6.7221117e-01
  1.3241369e+00
 -1.3785484e+00
 -1.2539162e-03
 -3.2711655e-01
  2.2479336e+00
  4.0398991e-01
 -2.6558368e+00
 -1.4739659e+00
 -9.4782782e-01
  2.6962113e-01
 -1.0622690e+00
  7.3502012e-02
 -2.9437885e-01
  3.6031654e-01
  4.9115170e-02
 -5.5804968e-01
 -7.9097116e-01
 -3.6883187e-03
 -2.7545497e-01
  1.9449276e+00
 -2.8964607e-03
 -1.8990052e-01
 -3.5578051e-01
  1.0561731e-01
 -2.1034775e+00
 -1.0838238e+00
  1.8938037e+00
 -2.5224954e-02
 -3.0932250e+00
  1.2576611e+00
 -4.5449197e-02
  7.3430610e-01
  1.4279041e-01
 -1.9348823e+00
  6.9074935e-01
  5.2364830e-02
 -2.7131818e-03
  2.8648424e-01
 -8.1991581e-03
 -5.7438892e-01
 -7.3632228e-01
 -2.7508202e-01
  3.2994026e-01
  6.7500114e-02
  7.5758230e-03
 -1.4903624e+00
 -9.3391848e-01
 -9.8246895e-03
 -2.9170358e+00
 -8.6427093e-01
 -1.5678496e+00
 -1.6880294e-03
  1.5042528e+00
  1.1116986e-01
 -3.0966869e-01
  4.7836205e-01
  1.4533272e+00
  4.1668913e-03
 -1.5607870e-01
  1.0244137e+00
  5.2528612e-02
  1.5270662e-01
 -2.6418343e-02
 -4.9811429e-01
 -9.8205328e-01
 -9.6520610e-02
 -4.6595272e-01
  1.1928505e+00
  1.4182323e+00
  7.1481425e-01
 -2.7613914e-01
 -4.8686683e-01
  4.3532783e-01
  1.5412493e-01
  2.1878947e-03
 -5.3717509e-02
  7.4063158e-01
 -4.5986259e-01
 -1.8186387e-01
  8.5160267e-01
 -7.4128941e-02
  3.3788350e+00
 -2.3328409e-02
  5.0914120e-02
  9.5402455e-01
  1.0622468e+00
  6.1325341e-01
  4.7419447e-01
  9.0288752e-01
  9.7951102e-01
 -6.1006863e-02
  4.2426763e-03
  9.0262425e-01
  2.4386506e-01
  2.9533881e-01
  1.0881172e-01
 -5.2142896e-02
 -1.1007326e-01
 -1.9886760e-01
 -1.5486423e+00
 -4.7755933e-01
  8.9948736e-02
  1.6287767e+00
 -2.3097300e-03
  2.0712635e-01
 -5.4019630e-01
 -1.1733299e+00
 -2.3702066e-01
 -6.2667668e-01
  1.4134916e-02
 -3.0396873e-01
 -4.0948447e-03
  1.7764282e-03
  6.4178649e-03
  2.5949018e-02
 -8.8076219e-03
  1.9823920e-02
  6.1901694e-04
 -1.7201751e-02
  1.5502180e-02
 -1.7830739e-02
 -1.4543644e-02
  1.5893912e-02
  1.2939069e-03
  1.2626608e-03
  2.3515372e-02
 -8.4692836e-03
  8.1445277e-03
  5.4899203e-03
 -2.0308259e-03
  6.9150268e-03
  9.5258737e-03
  8.8848947e-03
  2.5362377e-03
  9.7183706e-03
  1.5217715e-03
 -1.3021593e-03
  4.1812034e-03
 -5.2581681e-03
  2.5332497e-02
 -2.7344970e-03
 -8.0472669e-03
  8.3442032e-03
  1.4841717e-02
  5.9048887e-03
 -6.1952287e-01
 -3.2820173e-03
 -4.2320807e-03
  1.0666032e-03
 -3.2579252e-03
  3.7939148e-04
  3.7508287e-02
  1.2016185e-03
  8.6878147e-03
  1.9301351e-02
 -9.9081565e-03
 -1.9421069e-02
 -3.5538063e-03
 -3.8738497e-02
 -1.1253533e-02
 -7.1732059e-02
 -7.9204813e-03
  1.6070772e-03
 -2.1061877e-02
  9.0508582e-03
 -5.7789605e-02
 -4.9923360e-03
 -5.7221339e-03
  1.3109405e-02
 -1.9592648e-02
  2.4475420e-03
 -2.2290191e-02
  1.0797484e-02
 -1.0794178e-02
 -1.4724116e-03
  1.8220951e-04
  1.5405629e-02
  2.7531430e-03
  9.2763864e-03
  3.5937214e-03
  1.3835316e-03
  4.0660170e-03
  1.1934204e-03
 -8.3758971e-03
 -4.3258257e-04
 -2.1401930e-03
 -1.3219255e-03
 -1.9860710e-03
  4.7520257e-04
  1.0982396e-02
  2.1297894e-03
  1.0876853e-02
 -1.5262362e-02
 -1.3486158e-02
 -1.3162470e-02
 -3.9472442e-02
 -5.7202461e-03
 -1.5577861e-03
 -6.6328095e-03
  2.8193910e-03
 -1.5636019e-03
 -2.0907196e-01
  1.7224416e+00
  4.1099495e-01
 -3.1364730e-03
  5.4457538e-02
  2.7613619e-01
  1.2980862e-01
 -6.7347139e-01
 -1.0220180e+00
  9.3965900e-01
  2.5934445e-02
 -4.6091814e-02
  2.0688401e-01
 -2.8898847e-01
 -8.4536862e-01
 -1.3395527e-01
 -6.0150194e-01
 -6.7850256e-01
  3.1889641e-01
 -2.1414633e-01
  3.9491007e-01
 -2.9778782e-01
  2.4594930e-01
  1.1599784e-01
 -1.1534181e-01
 -8.1508890e-02
  4.5779075e-02
  3.1428686e-01
  1.1876876e-01
  3.1139717e-01
  6.2161529e-01
  4.4135489e-03
  7.7007455e-01
 -1.5563556e+00
  6.4850494e-02
  1.8066649e-01
  3.0486647e-02
  4.2975888e-02
  8.6898565e-02
  1.3341631e+00
  1.1437359e-03
 -4.7915423e-01
  5.4176271e-01
 -4.7798268e-02
  4.1029239e-03
  3.5964046e+00
  3.0011538e-01
 -9.5391846e-01
  1.8437295e+00
 -5.8930880e-01
  8.1448632e-01
 -2.5421550e+00
  2.5357893e+00
  1.0449841e+00
  7.4395251e-01
 -1.8910559e-01
 -7.4279569e-02
 -1.6085057e-01
  3.2914102e-01
  1.2038478e+00
 -6.4966726e-01
 -8.9078099e-01
 -1.1599105e-01
  9.8454645e-03
  8.7165779e-01
  1.5600864e+00
 -2.1848954e-01
  2.3866803e-03
 -4.4151792e-01
  1.0528921e-01
  1.7543514e+00
  7.3635113e-01
  2.1895532e-02
 -6.0913181e-01
  3.7856787e-01
  1.5809177e+00
  8.8528675e-01
 -6.2949526e-01
  1.6724683e-01
  1.1539325e+00
  3.6146769e-01
 -1.5715857e-01
 -2.4569777e-01
 -6.1962724e-01
  3.6599422e-01
  2.7564049e-01
 -7.9284936e-01
  9.0205902e-03
  4.7064009e-01
  5.3382330e-02
 -8.6137235e-01
 -3.3416665e-01
  5.1459837e-01
 -2.5979491e-02
 -1.1276185e-01
  1.5551050e+00
 -4.2690639e-03
 -1.7703590e-03
 -2.4495049e+00
  6.3033879e-02
  2.3167623e-02
  1.7486930e-01
  1.7103045e+00
  4.3412337e-01
 -5.8185849e-02
  1.0373834e-02
 -1.0646834e+00
  8.9656122e-02
 -9.2951798e-01
  8.3572436e-03
  9.9487044e-03
  3.2792884e-01
  4.4834342e-02
 -8.4782019e-03
  1.2498645e-02
  1.4882263e-02
  5.7691876e-02
 -6.0617072e-03
 -1.0597156e-02
 -6.1856163e-01
  4.3426813e-03
 -5.5690753e-01
  7.5475685e-04
 -2.0250902e-02
  1.9990958e-03
  2.0242087e-04
  9.0183131e-02
 -1.9695748e-02
 -2.1134716e-02
 -1.2973803e-02
  1.4175404e-02
  5.3504860e-01
  1.3768870e+00
  2.0236436e-02
  7.4842302e-03
 -1.8702315e+00
 -1.3171601e+00
  1.7469038e+00
  6.8316299e-01
 -2.9715071e+00
  1.9389212e+00
  5.5174381e-01
  1.1266299e-01
  1.5845947e+00
  1.9415858e+00
  3.0685911e+00
  1.5722798e+00
 -6.1881304e-01
 -2.2406487e+00
 -5.7666475e-01
  9.0142822e+00
 -9.4725704e-01
  2.4814087e-01
 -3.4177631e-02
  4.3151563e-01
  4.4492064e+00
 -1.1904379e+00
  5.9394574e-01
 -2.5794103e+00
 -1.2238618e+00
 -6.8971592e-01
 -2.2222281e+00
 -1.5878075e+00
  6.0732239e-01
  8.2272393e-01
  5.2222294e-01
 -5.5378646e-01
 -1.4970927e+00
 -4.3926530e+00
 -9.6326625e-01
  2.5145209e-01
 -9.5810908e-01
 -1.5038699e+00
  5.8871263e-01
 -1.9394712e-01
  4.7530100e-01
 -2.0420601e+00
 -2.5650668e-01
 -3.9676821e+00
  1.2744369e-01
 -2.9574544e+00
  1.9366390e+00
 -1.7174928e+00
  1.0015539e+00
  1.4671579e-02
 -1.3272892e+00
 -1.1158139e+00
  2.1323593e+00
 -7.1313685e-01
 -1.1933782e+00
  2.7124426e+00
  1.1468794e-02
 -1.0659168e+00
  1.0747567e+00
  1.3572905e+00
 -1.7177755e-03
 -2.3719790e+00
 -4.1946422e-02
  3.2584419e+00
 -3.1040901e-01
  5.3609341e-01
 -1.9753846e+00
 -8.3053615e-03
  1.2931724e+00
 -1.5892571e+00
 -2.2243454e+00
  2.7985070e-02
  1.7738224e+00
 -3.2072268e+00
  3.7861257e+00
 -1.1022591e-02
 -3.8857710e-02
  1.9530782e-01
 -6.6356415e-01
  4.7735411e-01
  1.2609557e-02
  1.6492693e+00
  1.9419003e-02
 -3.4430923e+00
 -2.9040822e-01
  1.4201454e+00
 -2.4765097e-01
 -5.4351240e-01
  3.7206769e+00
  9.1138846e-01
 -1.5063957e+00
 -1.5573137e+00
 -1.1046931e+00
  1.0984476e+00
  1.2404199e+00
 -4.6585779e+00
 -3.7111416e+00
  8.4628455e-02
  2.7318139e+00
 -2.7046087e+00
 -4.5266217e-03
 -9.8302376e-01
  1.9875866e-01
 -7.3309705e-02
 -5.7494241e-01
 -2.0159457e+00
  6.2293917e-02
  1.2990150e+00
 -3.1839222e-01
  6.5165561e-01
 -4.7964888e+00
  4.1466054e-01
 -4.6047202e-01
  1.7798184e-01
  7.9532427e-01
  1.6917152e+00
 -7.7368133e-03
  1.3233329e+00
 -2.8476883e-03
  2.6538962e-01
  4.1812900e-01
 -3.2044411e-01
  5.8894771e-01
  1.9163808e+00
  1.5269452e+00
  4.8310135e-02
  5.7606685e-01
 -1.1950138e-04
  6.2094085e-02
 -2.8557357e-01
 -6.9132401e-04
 -7.0001274e-01
  1.9168282e+00
 -3.0001206e-03
  2.7475242e-02
 -1.2734151e-01
  1.9495128e+00
  5.7925397e-01
 -2.3950007e+00
  8.8224226e-01
  1.6087294e+00
 -3.4028772e-01
 -1.0656153e+00
 -4.9655303e-01
  1.6442813e-01
 -1.9295070e-01
 -3.4478843e-01
  5.3439903e-01
  6.4078546e-01
  2.8059401e-02
  7.8048490e-02
  3.2199945e-02
 -6.4202762e-01
  9.2361671e-01
  3.7670559e-01
 -1.2609971e-01
  4.3528327e-01
 -5.5334657e-01
  6.5553468e-01
 -8.8289976e-01
 -3.5782889e-02
  2.3076849e-01
  3.8580185e-01
 -1.0401118e-03
  7.3114480e-03
  9.3259001e-03
 -5.2354671e-02
 -7.5487757e-01
  3.4155109e+00
 -3.0553792e+00
 -6.7379534e-02
  8.5256100e-02
 -4.1636655e-01
  3.5719156e-01
 -2.6324928e-01
 -1.4790161e+00
  7.8545684e-01
  3.5036221e-01
 -1.5666270e-01
 -4.9879080e-01
 -1.0858436e+00
 -2.1530528e+00
  2.2308164e+00
 -2.7477617e+00
 -6.3271201e-01
  6.9415665e-01
  2.6965153e+00
 -5.0192494e+00
 -6.0054904e-01
  1.2764285e-04
 -1.6014953e-01
 -1.4703628e+00
  5.1961267e-01
 -2.2176316e-01
 -4.7757295e-01
 -5.6891412e-01
 -7.8074938e-01
  1.9845606e+00
 -1.7838653e+00
  1.0225506e+00
  1.4243375e+00
 -1.5709221e+00
  2.9746747e-01
  6.5012091e-01
 -3.5830963e-01
 -9.2268148e-03
  5.6594455e-01
  2.8001559e-01
  7.9383114e-03
 -1.9435900e-01
  5.4604164e-03
  1.5704173e-01
  6.5757692e-01
  4.4396815e-01
  4.8772699e-01
 -5.3400643e-02
  6.2273324e-01
 -1.4465661e+00
  1.7512465e+00
 -1.7041767e-01
 -1.0669533e-01
  3.6206722e-02
  8.7161267e-01
  1.0328362e+00
  6.3845134e-01
 -9.0493165e-02
  3.3386877e-01
  1.4590615e-01
  2.6263092e-03
  6.3659452e-02
 -8.4073931e-02
 -1.1932533e+00
  1.7619355e-01
 -2.3382212e-01
  2.0628655e-01
 -5.1186148e-02
 -1.4175445e-02
 -7.2104111e-02
  1.0066952e-02
  3.0712401e-02
 -3.7519671e-02
  8.2711458e-01
  2.7982023e-01
  2.2923903e-01
 -1.6704734e-02
 -8.3590636e-04
 -4.0668584e-02
 -1.0475671e-01
 -2.3879911e-01
  4.9575724e-02
 -2.5116634e-02
  1.7718238e-01
  7.9691812e-02
  3.9486866e-03
 -1.9424053e-01
 -1.4739150e-01
 -1.7209612e+00
 -9.4627194e-02
 -1.5965872e-01
  2.8647173e-02
  3.2960409e-01
  4.3732192e-02
 -1.4226305e-02
 -4.0056735e-01
 -1.8743405e-01
 -1.4594987e-01
 -3.0004462e-02
 -4.8653219e-02
 -2.3038530e-01
 -4.4151712e-02
 -2.1883202e-01
  9.6595094e-02
  2.1164269e+00
  5.4836929e-01
  7.4459708e-01
 -1.5012616e-01
 -1.4610790e+00
 -1.6203725e+00
  1.0203709e-01
 -8.4419024e-01
  7.9124235e-02
 -8.0312341e-01
 -2.2038549e-01
  2.5747168e-01
  4.3910909e-01
 -9.3329495e-01
  8.8576302e-02
 -7.7435237e-01
  1.8328646e-02
 -1.2859359e+00
  2.7793882e+00
 -1.6569015e+00
 -1.2690811e+00
 -2.7994826e-01
  5.6932747e-01
  2.1569266e+00
 -2.8718683e-01
 -4.6434209e-01
  4.3667972e-01
  6.8720150e-01
  2.5453451e+00
  1.5743271e-01
  7.9402900e-01
 -2.8264981e-02
 -3.4520161e-01
 -1.2400917e+00
  7.8740609e-01
  3.1416051e+00
 -1.4762974e-01
  6.8535006e-01
 -1.6746800e-01
  5.5320686e-01
 -1.0022970e+00
 -1.3499530e-02
  3.4425878e-03
  9.1741401e-01
  4.5803633e+00
 -4.3856373e+00
 -8.1879812e-01
  4.3921056e-03
 -9.5354520e-02
 -5.7458510e+00
 -3.1169589e+00
  6.7777646e-01
 -1.0109843e+00
  6.6690636e-01
  1.7483461e+00
  1.4030797e+00
 -6.4267868e-01
  6.5892416e-01
 -9.0002960e-01
 -2.9966519e-03
 -2.8110111e-02
  6.0783315e-01
  6.6284275e-01
 -1.5059765e-01
  8.2572522e-03
  1.0273409e-02
 -7.6357144e-01
 -6.1523163e-01
  4.7253400e-02
  4.6366736e-01
  5.9081339e-03
 -1.0452786e-01
 -2.8373334e-01
  2.7206366e+00
  2.8223413e-01
  1.6248096e-02
 -9.6467566e-01
  7.2186124e-01
  1.9687574e-02
  9.9475700e-01
 -1.2858599e-01
  2.2028589e-03
  1.3576169e-04
 -8.0683404e-01
 -4.4279411e-02
  6.7171799e-03
  1.0558113e-01
  1.2211262e-02
  6.5118605e-01
  6.0628831e-01
 -6.9017804e-01
 -1.3731679e+00
 -1.5021418e+00
  2.2187108e-01
 -1.3736460e-01
  1.9578983e+00
 -3.1473501e+00
 -1.2623781e-01
  2.5976604e-01
 -9.4845009e-01
 -1.0639039e-01
 -1.2888895e+00
 -3.2406247e-01
  3.6514468e-02
  1.2416467e-01
  1.2003334e-02
 -2.0141258e+00
  1.5290984e+00
  1.8181039e+00
  6.9987357e-01
 -5.1101810e-01
 -2.0702651e+00
  1.2898755e+00
 -7.7389769e-02
 -1.6053897e+00
 -4.1716871e+00
 -1.8480169e-02
  2.9988286e+00
 -1.0713344e-02
  3.5647237e-01
 -6.4240396e-01
  4.0661774e+00
 -2.1145105e-01
 -1.2884808e+00
  8.5775644e-02
 -3.2645223e+00
 -4.5835921e-01
  9.7240740e-03
 -6.7278689e-01
 -9.1892719e-02
 -9.6812999e-01
 -2.8137622e-02
  2.2899409e-01
 -6.6657096e-01
 -3.5899160e+00
 -2.8789589e-01
  2.5831535e+00
 -5.7756418e-01
  2.7993405e-01
  6.7934074e-02
  1.4959252e+00
  2.7747825e-01
  4.4712421e-01
  5.0193244e-01
  6.2061977e-01
  2.0960489e-01
  2.3030008e-01
  9.7745828e-02
  6.9856845e-02
 -7.2701745e-02
 -1.9053311e+00
 -7.2012657e-01
  7.9175019e-01
 -1.1646237e-01
 -1.2654440e+00
  3.8967010e-01
  5.9739619e-01
  3.7232196e-01
  1.1505911e+00
 -7.3472005e-01
 -3.7130663e-01
  4.0582097e-01
 -4.1724035e-01
 -8.4286537e-03
 -2.3382585e-01
  9.1822171e-01
 -2.4327009e+00
 -1.0811516e+00
 -1.8611426e-02
 -3.7683994e-01
 -6.7364670e-02
 -1.0045167e+00
  2.2893354e-01
  1.1611667e-02
 -7.6686591e-01
  1.1399563e-01
 -2.5137103e-01
  1.2406381e-01
  1.3618327e+00
  1.2565230e+00
 -6.3861400e-01
 -1.4826050e+00
  1.0070186e+00
 -8.6315918e-01
  1.5001251e-01
  2.6697071e+00
  1.9299314e+00
 -1.0431516e+00
 -1.2375957e+00
 -1.1141418e+00
  8.3303100e-01
  3.1399305e-03
 -1.0437894e-01
  6.6582382e-01
 -6.8144405e-01
 -1.9694178e-01
  1.5451081e-02
 -4.3412247e-03
  3.3671701e+00
  8.0862224e-01
 -1.2540222e+00
  2.1060939e-01
 -2.4681772e-01
 -4.0075698e-04
  7.3483385e-02
  1.9640720e-02
  3.5648432e-01
 -9.3304545e-02
  2.8714412e-03
 -7.6622123e-01
  4.8855352e-01
 -8.5205227e-01
  8.5012347e-01
 -1.3523453e-01
 -2.4967976e-01
 -1.4725408e-01
 -7.2924387e-01
  1.9930869e-01
 -2.3029447e-02
  5.3015488e-01
 -2.8273112e-01
 -5.7552314e-01
 -5.9568703e-01
 -1.7844434e+00
 -2.9689820e+00
  1.2264446e+00
 -1.9694549e-01
  1.0202632e+00
  4.3530822e+00
 -2.6394024e+00
 -2.4339354e+00
 -3.9584345e-01
  1.0481547e+00
  1.4643292e+00
 -3.8166570e-03
 -7.5854540e-01
  5.4162306e-01
  1.7335460e+00
  1.2915456e-02
 -2.2126356e-01
  1.2431330e-02
 -5.3984433e-01
  1.4559700e-02
  1.1865357e+00
  3.3302063e-01
  6.6487658e-01
 -4.4696790e-01
  1.1917481e+00
 -6.4135402e-01
  1.7162632e-02
  1.0628968e+00
 -2.8685090e-01
  1.5920768e+00
 -5.8686948e-01
 -6.5056187e-01
 -2.5734490e-01
  2.5940945e+00
 -1.2972195e+00
 -1.5354263e+00
  1.3493646e+00
  3.5632721e-01
  7.2017527e-01
 -9.6448034e-01
 -1.8346624e+00
  1.7918925e+00
  1.4447198e+00
  1.0764343e-01
 -1.1051973e+00
 -2.0628681e+00
  3.3330088e-03
 -5.5740088e-01
  1.4377607e+00
  9.1739750e-01
  7.4239887e-02
 -2.9838815e-01
  1.2670845e+00
 -2.5865605e+00
  1.1275082e-01
 -1.3412377e-01
 -1.1973642e+00
  9.0473211e-01
  7.0718753e-01
  1.1754599e-02
 -1.1112907e+00
 -2.5654322e-01
  3.0599946e-01
 -6.5618321e-02
 -3.1140033e-02
 -1.9231883e-03
 -7.6368278e-01
  2.0903853e-01
  1.2859026e-02
  5.6446218e-01
  1.3435888e-01
 -5.7929802e-01
 -1.0755256e+00
 -9.7452760e-02
  8.8074371e-02
  3.3723183e-02
  1.1854112e+00
 -3.6553532e-02
  9.2986174e-02
 -8.5112065e-01
 -2.2875245e-03
  3.7187803e-01
 -1.1020545e-02
 -2.3420241e-01
 -1.4188829e-01
  1.1744329e+00
  1.0314434e+00
  2.4487320e-01
  1.4797361e-01
 -1.6600793e-02
  1.3028482e+00
  8.9857757e-01
 -5.2232897e-01
  2.9133828e+00
 -1.0297047e+00
  1.4241495e+00
 -1.8166576e-01
 -3.4524354e-01
 -2.2935502e-01
 -1.0052080e+00
  4.9398237e-01
 -4.8347816e-01
 -8.3303976e-01
  1.2605301e-01
 -6.8031436e-01
  1.1346296e+00
 -5.8801682e-03
 -8.0867356e-01
  4.0300719e-02
  1.4753212e+00
 -2.5553279e+00
  3.5085654e-01
 -1.6282150e-01
  1.0568318e+00
  1.7771373e+00
  2.5649312e-01
  3.4562372e-02
  1.5198176e+00
 -1.3004820e+00
 -5.3178394e-01
 -1.3367716e+00
  1.0327542e+00
 -5.0145966e-01
  2.0504425e+00
  2.0092452e+00
  7.5807288e-02
  1.3650835e+00
  9.2681223e-01
 -5.1652688e-01
 -3.5564533e-01
  9.7892594e-01
 -8.6796612e-01
 -7.3480397e-02
  1.6811237e+00
 -1.5315630e+00
 -7.6508069e-01
  1.8705910e+00
 -3.5153958e-01
  6.4167315e-03
 -3.3017650e-01
  8.8113137e-03
 -1.1761566e+00
  2.6830361e+00
  1.6783583e+00
  1.1811373e+00
  1.0405519e+00
 -1.1256744e+00
 -1.6313285e+00
  7.2674677e-02
  2.4205115e+00
 -5.3916758e-01
 -4.9236309e-02
  1.3887982e-01
  8.6201525e-01
  2.5568075e-02
  2.8825842e-03
  3.7523122e+00
  7.0419267e-02
  2.3126495e+00
  1.5855235e+00
  2.6490545e-01
  2.6403179e+00
 -7.7107739e-01
  7.7975649e-01
  9.6519142e-03
 -2.2719333e+00
  1.8609445e+00
 -2.9039178e+00
 -1.7974863e+00
 -1.6298532e+00
  6.3830845e-02
  5.1531172e-01
  8.2277137e-01
  9.4063872e-01
  1.7558264e+00
  1.1501793e+00
  4.1346848e-03
 -6.6583976e-05
  4.3396908e-01
  1.3679892e+00
  1.3875780e-01
  2.1887598e+00
  8.5796732e-01
 -5.0306189e-01
  2.4913232e+00
  8.2581007e-01
 -1.4662537e-01
  2.1143436e+00
  1.2459475e+00
 -2.0387492e+00
 -2.6003748e-01
 -2.2004488e+00
 -1.1229218e+00
  5.4570626e-02
  1.9459502e-01
 -2.5403991e-01
 -6.3326293e-01
 -1.9998284e-01
  7.7809468e-02
  2.6308289e-01
 -4.1203611e-03
  1.9197139e-01
  3.1494188e-01
  9.5296092e-02
  2.6887214e-01
  3.2560107e-01
  2.5763363e-01
  1.8797240e-01
  8.7047443e-02
 -2.7428868e-01
  2.7877694e-01
  3.8356200e-01
  8.8659301e-02
  1.3633901e-01
 -3.2479627e+00
 -6.6312641e-02
 -4.1022295e-01
  2.2754174e-01
  3.4211347e-01
  3.6475337e-01
  2.0265125e-01
 -5.0732088e-01
 -2.3650113e-01
  1.3710548e-01
 -8.3067445e-03
 -1.0918335e+00
 -1.4838703e-01
 -9.4250268e-01
  5.9073943e-01
  1.2073772e+00
  1.0003250e+00
 -7.1427464e-01
  1.2466981e-01
 -3.5258502e-01
  9.3758188e-02
  7.1472394e-01
  7.6093646e-03
  1.7543215e-02
 -1.0728873e+00
  6.3546008e-01
  1.2811781e-01
  4.5807761e-01
 -3.9608940e-01
 -2.6686618e-01
 -4.0510732e-01
 -1.2188724e+00
 -2.8173080e-01
 -1.1144869e+00
  3.3567923e-01
 -1.7411476e-01
  7.3596132e-01
 -1.8738548e+00
 -5.2138505e+00
  8.1669980e-01
 -8.9357704e-01
 -5.0115585e+00
  4.1841364e+00
 -8.3348656e-01
  2.6266947e+00
 -1.0132565e-01
 -2.4930996e-01
  2.8941762e+00
  1.9644174e-01
  3.4930868e+00
 -1.5105343e-01
  2.9957955e+00
 -3.2778881e+00
  1.0345413e-01
 -1.2296493e+00
  6.9895977e-01
  1.1817700e+00
  1.0049116e-01
 -2.0633443e-01
 -2.9505272e+00
 -6.3074321e-01
 -2.6773810e-01
  1.0001170e-01
  3.2979882e+00
 -1.2180629e+00
  3.2723528e-01
  1.0592284e-01
 -1.3139763e-01
 -4.3501419e-01
 -1.1302286e+00
 -1.5065660e+00
 -1.6846607e+00
 -2.8681335e-01
  1.4828604e-01
 -1.0107657e+00
 -2.7563756e+00
 -1.7663708e-01
 -1.8324138e-01
  4.3740964e+00
 -3.7936323e+00
 -1.7412864e+00
 -1.5241145e+00
 -1.0077731e-01
  2.0826955e+00
  6.1826855e-01
 -1.4831916e+00
  5.7637131e-01
  7.3887843e-01
  1.9573896e-01
 -2.8847249e+00
 -1.5879167e+00
 -1.9643243e-01
  1.1381259e-01
  4.0862352e-01
 -1.0762196e-01
  7.5133890e-01
  6.8594396e-01
 -1.8927817e+00
  2.0885022e+00
  1.7904289e+00
  4.5363864e-01
 -5.3442526e-01
 -1.7168385e+00
 -1.4011164e+00
  2.0267403e+00
 -5.4087597e-01
  1.2653073e+00
 -2.3798242e+00
  3.1972511e+00
 -7.0352215e-01
 -1.6360823e+00
  1.0463198e+00
 -3.4922726e+00
 -1.1760072e+00
  1.0554324e-01
  1.2452753e+00
 -2.0811198e+00
  3.3732203e-01
 -5.7367307e-01
 -1.3525584e-01
 -1.0233418e-01
 -5.3894109e-01
 -1.3526205e+00
  1.0080390e-01
  3.0315393e-01
 -3.1646094e-01
 -4.5179343e+00
  1.8615197e+00
 -1.7998901e-01
  1.0750800e-01
 -1.2156395e+00
 -1.4934966e-01
 -1.2352252e-01
 -1.9770268e-01
  1.0255025e-01
  4.7947869e-01
  5.2639747e-01
  6.6389233e-01
  9.0921605e-01
 -1.2273896e-01
  1.9912971e+00
 -2.3114645e+00
 -3.8427225e-01
 -2.3441079e+00
  4.8273206e+00
 -4.6955109e-01
 -5.6622273e-01
 -2.5792912e-01
 -1.0200058e-01
 -3.7577164e+00
 -2.5067873e+00
 -2.8222635e+00
 -2.4004516e-01
  2.7384114e-01
 -1.2443293e+00
 -1.8714242e+00
 -1.3773915e+00
 -1.0100877e-01
  3.1687316e-01
  3.8445774e-01
 -2.9691905e-01
 -2.0028467e+00
 -5.1951170e+00
  3.9728003e+00
 -2.2596633e+00
 -5.4612893e-01
 -1.7342894e+00
  1.9243660e+00
 -1.9718537e-01
 -2.8161137e+00
 -3.4597611e-01
 -2.1032043e+00
  1.0030526e-01
 -8.7408698e-01
 -9.1252464e-01
  7.1688461e-01
  3.0651960e-01
  1.1301330e+00
 -6.2777004e+00
 -7.9035461e-01
 -3.4880552e+00
 -9.9704146e-01
  1.0283139e-01
 -3.0997750e-01
 -1.0209624e-01
 -1.3370804e+00
  2.2946805e-01
  2.7160349e+00
 -1.9410399e-01
  7.6063699e-01
 -4.0600839e-01
  1.5552326e+00
 -1.7474529e+00
 -1.2536869e+00
 -8.2662433e-01
 -2.3426228e+00
 -3.4490898e-01
 -3.0686536e+00
 -1.5086447e+00
  1.0057119e-01
 -3.0817699e-01
  1.0043504e-01
  1.3996702e+00
  1.1498115e+00
 -1.0120747e-01
 -2.7119935e+00
 -5.9707695e-01
 -5.0611391e+00
 -2.3430490e+00
  2.6958987e-01
  5.2391350e-01
  1.1945200e+00
 -1.1588446e+00
 -4.5251125e-01
 -1.0022265e-01
 -1.0003994e-01
  2.0714350e+00
 -4.5985808e+00
 -1.0109363e-01
  1.0064902e-01
  1.0462540e-01
 -7.4015826e-01
  5.5903035e-01
  5.0644046e-01
  1.0170247e-01
  8.9153391e-01
  4.0270109e+00
 -1.0394111e-01
  3.3998969e-01
  7.4881876e-01
 -1.8767549e+00
  7.8638810e-01
  6.0860360e-01
  1.8758614e+00
 -2.5323865e-01
  1.1997193e+00
 -3.5136201e+00
  1.0676341e-01
  8.1383812e-01
  1.2509590e+00
 -1.7531370e+00
  2.1033022e+00
  4.2002714e-01
  2.8768194e+00
 -2.5851386e+00
  9.0048659e-01
  3.9071396e-01
  1.2113234e-01
  1.5253961e+00
  3.3972940e+00
 -1.5185159e-01
 -1.0835668e-01
 -2.6669526e-01
 -3.2552795e+00
  2.4364910e-01
  4.9944592e-01
  5.2861738e-01
  7.7076060e-01
 -9.8371631e-01
 -7.1129876e-01
 -6.0636473e-01
 -8.6180639e-01
 -1.9053131e+00
 -1.0007726e-01
 -1.0321543e-01
 -4.1323736e-01
 -6.0486251e-01
  2.2993920e+00
 -1.3513017e-01
  7.6698488e-01
 -1.8356781e+00
  3.5098929e+00
  1.5088915e+00
  5.1550269e-01
 -1.9799376e+00
  7.8047681e-01
  6.5454751e-01
 -3.2303688e-01
 -9.1131890e-01
  4.3629467e-01
  1.3598341e+00
  5.7713121e-01
  1.5507048e-01
 -1.0222591e-01
  7.7080327e-01
  3.0119848e-01
 -2.6698260e+00
  1.6794217e-01
 -1.3950567e+00
 -1.6438190e+00
 -1.8732212e+00
 -2.1685052e+00
 -1.3353988e+00
  3.7009788e-01
  1.5385261e+00
 -1.3192142e+00
  1.1261377e-01
  6.8064892e-01
  1.0024323e-01
 -1.0231462e-01
  1.0704527e-01
 -1.1804520e-01
  1.1448233e+00
 -1.3293102e-01
 -1.1425588e+00
 -1.5767832e+00
 -1.1833174e-01
 -1.7076819e-01
 -1.1254791e-01
 -6.9981474e-01
 -8.0943578e-01
  1.0063988e+00
 -2.2763345e+00
  1.2464147e+00
 -1.9334694e+00
 -1.0414392e+00
 -1.8223513e+00
 -3.5470310e-01
 -4.6878916e-01
  6.4326787e-01
  1.2197728e-01
 -3.7045050e-01
 -7.5655384e+00
  1.0780239e-01
  1.0409106e-01
 -9.5086753e-01
 -6.6119921e-01
  3.2974380e-01
  1.0122871e-01
 -1.8170140e+00
 -6.4551723e-01
  1.0025094e-01
 -1.5214313e+00
 -2.5911939e-01
 -2.4510890e-01
 -1.0902581e+00
 -7.0961761e-01
 -4.5042157e-01
 -2.2348936e+00
  8.9193338e-01
 -1.7443246e-01
  6.1662382e-01
 -1.9975650e-01
 -9.1539013e-01
 -1.2872792e+00
  1.1344138e+00
  1.0895551e+00
 -1.4654372e+00
  5.2878280e+00
  2.8089768e-01
 -1.3583714e+00
 -2.9580345e+00
 -5.3857857e-01
 -1.1675433e-01
  1.1373053e-01
 -1.4206196e+00
  7.5886083e-01
 -7.2842890e-01
 -1.0103006e-01
  5.4554397e-01
  1.4005071e-01
 -3.8674965e+00
  1.1489876e-01
  2.2564263e+00
 -1.2223645e+00
 -1.6982417e+00
 -6.2037599e-01
 -3.5526338e-01
  2.2866738e-01
 -6.0842645e-01
  2.4749827e-01
 -5.9308332e-01
  3.1878335e+00
 -1.5448906e+00
 -2.8652377e+00
 -3.5500640e-01
  1.0084284e-01
  1.1555914e-01
 -3.3811837e-01
 -4.5643574e-01
 -1.1407998e-01
  1.1403918e-01
  6.5408742e-01
 -8.5991657e-01
  2.5227040e-01
 -1.0695893e-01
 -1.1239561e-01
  3.5254923e-01
  1.4685136e-01
 -6.8619382e-01
 -1.0116871e-01
 -1.3989978e-01
 -4.1874281e-01
 -2.3488414e-01
  1.0126135e-01
 -2.7319735e-01
  1.2434701e+00
 -1.8542720e+00
 -1.4014946e+00
  1.1550951e+00
  3.4207706e+00
 -1.0020312e-01
 -3.5112461e-01
 -6.7621952e-01
 -9.1673833e-01
 -1.5234745e-01
  1.3370589e+00
 -3.8765964e-01
  1.2158710e-01
  9.0168923e-01
 -1.3249989e+00
  2.8931680e-01
  1.0204485e-01
 -4.6906078e-01
  9.9720389e-01
 -2.3278663e-01
  7.1142936e-01
  1.2343928e-01
  2.6234791e-01
 -1.3413143e+00
  1.0176545e-01
  1.0024430e-01
 -4.9852124e-01
  6.9976854e-01
 -1.0136090e-01
  9.3780226e-01
  1.9655919e+00
 -2.8226978e-01
  7.9283118e-01
  1.0841759e-01
 -2.6528332e+00
 -6.3672704e-01
 -7.6021540e-01
 -1.1987876e+00
  2.5716228e+00
  5.6804085e-01
  3.1900110e+00
  2.2606797e+00
  1.0523106e-01
  1.1195891e+00
 -1.0057089e-01
 -2.7856389e-01
  6.2688893e-01
 -1.6239870e+00
 -1.2686531e-01
  1.1255419e+00
  2.9024162e+00
  5.8860385e-01
  5.8536190e-01
  2.8795221e-01
 -2.1308799e-01
  7.4517500e-01
 -4.1401887e-01
  1.0032175e-01
 -1.6889111e+00
 -1.7309918e+00
 -1.4784324e-01
  4.6514291e-01
  1.0174072e-01
 -2.9554445e-01
  2.8425720e-01
  8.8911068e-01
  1.0396120e-01
  1.2409104e-01
 -2.8761690e+00
  1.3180780e-01
 -2.0361206e-01
  3.9218456e-01
 -1.7470664e+00
  6.8094021e-01
  1.6272337e+00
 -6.4107883e-01
  1.1217764e-01
 -7.7340317e-01
  3.7370813e-01
 -1.4925336e+00
  5.5136199e+00
 -1.2504493e+00
 -6.6247445e-01
  1.0409376e-01
 -1.4252762e-01
 -1.6432162e-01
 -1.3581763e-01
  1.2239885e-01
  1.5874439e+00
  7.4557024e-01
  1.7293868e+00
 -5.3034425e-01
 -1.0033064e-01
  1.0058174e-01
 -4.3472809e-01
  3.2197261e+00
  1.2857745e+00
 -1.9424905e+00
  6.4257210e-01
 -2.3794687e+00
 -1.0012650e-01
 -2.3825278e+00
 -5.0701195e-01
  8.7798387e-01
  2.8123271e+00
  1.1059073e-01
  5.4967608e+00
 -1.0843329e-01
 -1.0269520e+00
 -8.8634902e-01
  1.1881246e-01
 -5.4884720e-01
  1.0435498e+00
 -4.0802845e-01
 -1.0239651e-01
  3.0686159e+00
  1.6806340e+00
 -1.3515425e+00
  8.6212796e-01
  1.0085119e-01
 -2.7147499e-01
 -4.8750606e-01
 -1.2409443e+00
 -1.1145008e-01
  1.6009798e+00
  1.1255850e+00
 -3.8190637e+00
  1.4256617e+00
  1.4899583e+00
  1.4376915e-01
  4.5757076e-01
  2.7818131e+00
  6.4033049e-01
 -3.5627322e+00
 -3.1592375e-01
  1.5138236e-01
 -1.0031012e-01
 -3.8896346e-01
  3.4125309e+00
 -1.3416651e+00
  2.0842979e+00
 -2.3091844e-01
  1.6374028e+00
  7.6756662e-01
 -5.1569314e+00
  2.7713504e+00
  1.9560689e-01
  1.0073946e-01
  1.0118821e-01
  4.4207387e+00
  1.4829974e+00
 -1.0057855e-01
 -3.5547617e-01
  1.7696749e+00
 -7.1489453e-01
 -2.1865647e+00
  4.3233448e-01
 -2.8379405e+00
 -1.1625472e+00
  3.8965101e+00
 -3.3537276e+00
 -9.0638876e-01
 -2.3501043e+00
  9.7029263e-01
 -3.4339936e+00
 -2.6182077e+00
  1.3540887e+00
 -4.7482717e-01
 -1.1461128e+00
  1.6029019e+00
  1.0563569e+00
 -2.7653275e+00
  3.5534319e-01
 -1.0119246e-01
 -4.3534711e-01
 -1.0216255e-01
 -2.5808713e-01
 -1.0411511e-01
  4.4296369e-01
  8.8954771e-01
 -6.6018987e-01
 -1.6133287e+00
  2.2962146e+00
 -1.0282152e-01
 -1.0380276e-01
 -7.2319102e-01
  2.6646967e+00
  6.3197762e-01
  1.0125161e-01
  2.4320841e+00
 -9.8154700e-01
  4.5367897e-01
  7.0652056e-01
 -5.8592719e-01
  4.3414645e+00
 -3.0998936e-01
 -2.3764405e-01
 -3.1204019e+00
 -2.3383725e-01
  1.1098015e+00
  4.3729486e+00
  2.7997622e-01
  2.0486627e+00
 -2.2951932e+00
 -6.5434866e+00
  8.4244877e-01
 -4.3115029e+00
 -2.1276772e+00
  7.3968539e+00
  1.9888474e+00
  1.2245914e-01
  2.7801318e+00
 -4.6998134e+00
  9.2675877e-01
 -1.3699814e+00
  8.0803013e-01
 -3.9689546e+00
  4.2889404e+00
 -1.5560038e+00
 -3.5247982e+00
  3.1230164e+00
  8.4720749e-01
 -3.1779540e-01
 -1.0195822e-01
 -1.4443420e+00
 -3.9761891e+00
  1.0109934e+00
 -1.0241769e-01
 -1.0265066e-01
  1.0243665e-01
  1.9096661e-01
 -4.1237612e+00
  7.8572911e-01
  3.8074334e+00
 -5.2496772e+00
  3.2666185e+00
 -7.2314906e-01
  2.1920686e+00
 -1.9575548e+00
 -8.1881291e-01
  2.6117556e+00
  1.8341585e+00
  1.1810424e+00
  5.0110745e+00
 -2.0578873e+00
 -7.4897200e-01
  1.2270582e-01
 -1.3140646e+00
  3.7659356e-01
  1.7657429e+00
 -2.0878966e+00
  1.8007834e+00
 -5.6715879e+00
 -1.3457805e+00
  1.1618308e+00
  4.0818915e-01
 -1.0284996e+00
 -3.2533041e-01
 -1.8089521e+00
 -1.2089552e+00
  1.1811154e+00
  6.2438893e-01
  1.1490625e-01
 -1.6118313e-01
 -1.1853399e+00
 -2.5328960e+00
 -1.1698380e-01
  1.5135497e+00
  5.6426305e-01
 -2.3092076e-01
 -1.8744034e-01
 -6.4918957e+00
  2.4656627e+00
 -1.0933180e+00
 -4.8785010e-01
  2.6788616e+00
  3.6423395e+00
 -1.0213498e-01
 -1.0322356e+00
 -1.5463396e+00
 -1.0775092e+00
  1.0118031e-01
  1.1032664e-01
  1.6716541e+00
 -1.8709962e+00
  2.5709102e+00
 -2.3668948e-01
 -2.2775085e+00
 -1.0617039e+00
  1.1428320e+00
  1.9164219e+00
  1.7934656e-01
  1.0529459e+00
 -1.6171873e+00
 -1.2610230e-01
  1.0506332e+00
 -1.7057278e+00
  1.5855742e+00
  1.3264372e+00
 -4.2193797e-01
  1.3427907e+00
 -6.6810620e-01
  6.6928792e-01
  1.1170679e-01
  4.8009024e+00
 -1.2042145e-01
  3.3526561e+00
  1.9337747e+00
 -1.1469331e-01
  1.0883366e-01
  4.0567240e-01
  3.0151978e-01
 -1.0761181e-01
 -1.3554903e+00
  9.9172342e-01
 -1.0867169e+00
 -3.9915683e+00
 -1.6901603e-01
  1.0927577e-01
 -1.0370165e-01
  1.0708210e-01
 -1.4390770e+00
  2.4454184e+00
  4.1301295e-01
  1.6555526e+00
  7.9583627e-01
  1.0008918e+00
  1.1182232e-01
  1.7982987e+00
 -1.4139387e-01
 -2.0003278e+00
 -1.8934664e+00
  1.2742186e-01
  1.9079249e+00
 -9.4093245e-01
  1.4834186e+00
  1.1898918e-01
  3.2102039e+00
  4.9397173e+00
 -2.7950840e+00
 -2.4439597e-01
 -1.1682003e-01
  2.5936863e+00
  4.2774878e+00
 -1.0388315e-01
 -1.0150303e-01
  3.9958525e-01
 -1.5254300e+00
  3.0099511e-01
  2.4446135e+00
  2.2192225e+00
  1.0367323e+00
 -8.8219433e+00
  1.7813500e+00
  1.5469846e-01
  1.0292224e+00
 -6.6882545e-01
 -2.4322414e-01
 -2.7961004e-01
  1.2646593e+00
 -1.0282987e+00
  1.0157041e-01
  2.5299448e-01
 -1.2721433e-01
 -1.1593989e-01
  8.4518278e-01
 -2.3830082e+00
  2.5612882e-01
  8.8906258e-01
  2.3108094e+00
  1.1745356e+00
  1.2976803e-01
  1.9265488e-01
  1.8042855e+00
  1.3709474e+00
 -1.0220076e-01
  1.6469808e+00
 -1.5353113e+00
  2.6294646e+00
  2.6993914e+00
 -4.7688165e-01
  2.2547255e+00
  1.8570960e-01
  4.8860005e-01
 -1.2921664e-01
  1.9458918e-01
  3.8524631e-01
 -1.6893597e+00
 -1.0557627e-01
 -1.7845712e+00
 -1.0218217e-01
  2.2655461e+00
  3.0899556e+00
 -1.7911363e-01
  1.0008574e-01
  5.2660006e-01
  1.0391895e-01
  1.5157346e-01
 -1.2004834e-01
 -1.8776289e+00
 -2.6924663e+00
 -2.3026338e-01
  1.0062318e-01
  6.2876660e-01
  2.2121217e+00
  1.9017709e+00
 -3.1476977e+00
 -2.4781160e+00
  1.8721783e+00
 -8.5445231e-01
 -6.9917035e-01
 -1.0200865e-01
  1.8961830e+00
  1.1123184e-01
  2.4528480e+00
 -1.0050206e-01
 -1.3408166e+00
 -1.7241813e+00
 -1.0023580e-01
  2.9682508e+00
 -1.7039973e-01
 -1.6565512e-01
 -2.7516725e+00
 -2.3272326e+00
 -3.8700265e-01
 -2.1471724e-01
 -8.1073570e-01
  9.1089404e-01
  2.8268497e+00
 -1.5617360e-01
 -5.4167157e-01
  3.6374054e+00
 -2.3964208e-01
 -5.3514236e-01
  2.1239305e+00
 -1.3306292e+00
  2.9119968e-01
 -1.0011553e-01
 -1.0475108e-01
 -1.4807432e+00
  2.3336930e+00
 -1.0008524e-01
 -2.0047636e+00
 -1.0012610e-01
  4.1401771e-01
 -8.1753290e-01
  3.9799741e-01
 -1.0018717e-01
 -6.8987310e-01
  4.8875788e-01
  1.4596297e+00
 -5.4796714e-01
  1.2024055e+00
  1.0863907e+00
  2.1284279e-01
 -6.9274884e-01
 -2.0372608e+00
  2.1217964e+00
 -1.0494959e-01
  2.1624839e+00
  1.5592301e-01
  1.3518456e+00
  1.2753086e+00
 -1.8248981e+00
 -4.2253187e-01
 -1.0490434e-01
  1.0032500e-01
 -1.0296005e-01
  6.0278624e-01
 -1.5068731e-01
  2.6500615e-01
  8.4982616e-01
  1.0015649e-01
  2.3900454e+00
  1.1020263e-01
 -1.0543448e-01
 -1.9455303e-01
 -7.0286733e-01
  1.0402976e-01
 -1.8635924e+00
  3.5530332e-01
  3.1375365e+00
  4.9383384e-01
 -2.5416021e+00
 -1.0183413e-01
  1.5206034e+00
 -2.1637104e+00
 -1.4235123e-01
  1.0597208e-01
  3.2908413e-01
 -4.5304799e-01
 -1.1251794e-01
  1.0640302e-01
 -1.3240162e-01
  1.1342978e-01
 -1.3565011e+00
  1.6468288e+00
  1.6810627e+00
  1.0150871e+00
  1.0105138e-01
  3.0150263e+00
 -5.7421058e-01
  1.6824005e+00
  1.7910224e-01
  1.4738679e+00
 -1.1693993e+00
 -2.3623326e+00
  2.7382941e+00
  4.1927382e-01
  1.1341859e-01
 -1.4936174e+00
 -1.0062047e-01
  7.2546601e-01
  2.3139482e+00
  1.0650565e-01
 -1.2874315e+00
 -1.5193188e+00
  1.2208725e+00
  2.5750389e+00
 -1.5079385e-01
 -1.1805580e+00
 -1.3033222e-01
 -1.1648018e-01
  7.0963848e-01
  5.5259770e-01
 -4.1296110e+00
  4.0266472e-01
 -1.0000785e-01
 -1.2015095e+00
 -9.9227315e-01
 -1.0114222e-01
  1.3079187e+00
  1.0555667e-01
 -1.0179079e-01
 -2.2510338e+00
 -4.9457422e-01
 -1.3803484e-01
 -1.0087537e-01
 -2.5496173e+00
  8.8248765e-01
  1.5085379e+00
 -3.1220970e+00
 -6.3785976e-01
 -9.9083006e-01
 -3.7105513e+00
 -9.7829241e-01
  1.1238091e-01
  1.0217869e-01
 -5.5579609e-01
  3.1944805e-01
 -1.0478214e-01
 -1.0541319e+00
  1.2491005e-01
  4.7753320e+00
 -4.6469352e-01
  1.0350469e-01
  1.0416709e+00
 -1.2661678e+00
  1.1909714e+00
 -7.9595822e-01
 -1.0327972e-01
 -3.3676801e+00
  3.7014332e+00
  4.6717721e-01
  9.1095084e-01
 -2.0505850e-01
  4.3378812e-01
 -1.7040679e-01
  2.6873724e+00
  1.0026325e-01
 -1.0790572e+00
 -1.1507329e+00
 -8.6960775e-01
 -1.0199537e-01
  2.2754246e-01
 -2.4306841e+00
  1.0022981e-01
  1.0921288e-01
 -1.4321309e+00
 -1.0034773e-01
 -1.0308379e-01
  5.4978245e-01
  8.2939702e-01
 -7.1593916e-01
 -1.3190430e+00
 -1.0027148e-01
 -1.0627772e-01
 -1.0012648e-01
  1.7541099e+00
  3.0865061e+00
  1.4928807e+00
  1.0125661e-01
  1.0243414e-01
 -2.5054526e+00
 -1.3475776e-01
 -1.3222973e+00
 -1.5758743e+00
  1.7758313e+00
  6.6943806e-01
 -2.2561058e-01
 -1.1356390e-01
  1.3248057e+00
  2.2712481e-01
 -3.5250831e-01
 -1.5397056e+00
  1.9402260e-01
  1.9927287e+00
 -1.2141654e+00
 -2.7634187e+00
 -5.5390400e-01
  1.2019010e+00
 -1.6206568e+00
  3.7778303e-01
 -1.1395258e+00
  1.4786991e-01
  1.1135114e+00
 -1.4919583e+00
 -8.5937202e-01
 -7.9893982e-01
 -2.7964419e-01
 -2.7918959e-01
  1.1009053e-01
 -1.8801858e+00
  7.3212564e-01
  4.2993321e+00
  2.3969889e+00
 -3.9793150e+00
 -1.1606544e+00
  1.2408318e-01
 -1.0426041e-01
 -1.1319668e+00
 -1.0251970e-01
  1.0125510e-01
  3.6938009e-01
 -1.0149254e-01
  5.1846898e-01
  1.1420593e-01
 -1.0013899e-01
  1.2399364e-01
  1.8851379e+00
  4.8067251e-01
  4.6687093e-01
 -2.8261703e-01
 -5.0179476e-01
  2.6488857e+00
 -4.9695754e+00
 -1.1925406e+00
 -1.3677543e-01
 -2.8490558e+00
 -1.9981954e+00
  4.5502180e-01
  1.1520576e+00
  5.4750359e-01
 -5.8818185e-01
  1.0153846e-01
  1.0351322e-01
  2.5663325e-01
 -3.8809407e+00
  2.3575268e+00
 -2.1648821e-01
  4.6758161e+00
 -2.8863367e-01
  3.4037719e+00
 -9.0741271e-01
  1.6909101e+00
  1.0919453e-01
  2.0128157e+00
  7.1268570e-01
 -2.3703918e+00
  1.0029951e+00
 -3.2816210e+00
  2.1912315e-01
 -1.9512464e+00
  1.4334251e+00
  5.6026655e-01
  1.0186025e+00
 -3.5563087e-01
  9.4373482e-01
  4.6574551e-01
  2.3643845e-01
  1.3374637e+00
 -1.6045630e+00
  1.7583867e+00
  1.3226047e-01
  1.6839936e-01
  1.0735625e+00
  2.0054501e-01
 -6.9661212e-01
 -1.1129079e+00
 -4.8219460e-01
  3.6349991e-01
  3.8838631e-01
 -1.2606589e+00
 -1.0261141e+00
  1.5242174e+00
 -2.2515407e-01
 -5.1339060e-01
  1.1744108e+00
  9.8623788e-01
  7.2863716e-01
  1.8489467e+00
  3.8906455e-01
  2.9932933e+00
 -2.2371941e+00
 -2.0765986e+00
 -7.6137447e-01
 -2.0622404e+00
  2.2844246e-01
 -1.1334372e-01
  1.9126977e+00
 -1.2515044e-01
 -1.0001498e-01
 -2.5574416e-01
 -1.1427094e-01
  1.0099690e-01
 -5.9706628e-01
 -3.5126081e+00
 -1.5505056e+00
 -4.7328281e-01
  2.3701546e+00
  1.0025658e-01
  2.3407894e-01
 -6.9791949e-01
  1.9545318e+00
 -2.9224309e-01
 -3.3047104e+00
 -2.3029826e+00
 -9.4191539e-01
 -6.1616158e-01
 -4.2707819e-01
 -1.4060539e+00
  6.1744624e-01
  1.9758506e+00
 -3.5696957e+00
  1.8997090e+00
  1.4310848e+00
  4.8020606e+00
  4.9784562e-01
  2.6073360e-01
  1.3205279e+00
  1.1749898e+00
  1.0138324e-01
  1.0015619e-01
 -2.2134845e+00
 -1.8620533e-01
 -1.7280349e+00
 -1.7083386e-01
 -2.2836974e+00
 -5.8542782e-01
  2.4507284e-01
  1.0236732e+00
 -1.6246320e-01
 -1.0107222e+00
  1.1042736e-01
 -7.2628891e-01
 -1.0244738e+00
 -4.6903527e-01
  1.5741521e+00
 -1.4634116e-01
  1.2759305e+00
 -1.1126791e+00
 -3.2254767e+00
  6.7124206e-01
 -4.2291036e-01
  4.1798466e-01
  1.6194985e+00
  9.4926238e-01
 -8.1922716e-01
 -1.0420361e-01
  1.7189592e-01
  1.0009832e-01
 -3.5243025e-01
  2.6236525e+00
 -5.5971169e-01
  2.2136345e+00
  1.0070883e-01
 -1.0005549e-01
 -1.8033698e-01
  7.2160125e-01
  1.0858477e+00
  1.0428979e-01
 -1.3165195e+00
 -6.7257917e-01
 -6.7398345e-01
  4.3213835e-01
 -2.4889314e+00
 -1.6453623e+00
 -1.7284126e+00
  6.7276037e-01
 -1.0015792e-01
  2.9553071e-01
 -3.4432998e-01
  1.0201445e-01
 -1.0917851e-01
 -1.1673450e+00
 -1.0930777e-01
 -4.1896391e-01
  1.3223931e+00
 -1.0052007e-01
  1.2163616e+00
 -3.3990735e-01
 -1.0468129e-01
  2.3792303e-01
  1.2252288e-01
 -1.3713646e+00
  1.0310420e-01
 -1.3388487e+00
 -4.0721610e-01
  1.0315567e+00
 -7.4053293e-01
 -4.9406898e-01
 -4.7868380e-01
  1.0976064e+00
 -4.8025009e-01
  1.0499518e-01
 -1.2286522e+00
  1.1027063e-01
 -2.2288702e+00
  1.0113154e-01
 -1.3350260e+00
 -1.1257080e-01
 -2.3444443e+00
 -1.0573760e-01
 -1.7649450e+00
 -3.6219618e-01
 -4.4828299e-01
  1.0307118e+00
 -1.0574554e-01
  1.9080806e+00
  1.7391735e-01
 -4.1570851e-01
 -2.6253538e+00
 -1.3609246e+00
 -2.6539326e+00
 -1.0048898e-01
 -3.8181779e-01
 -1.6468036e+00
  1.0133297e-01
 -1.6497359e+00
 -2.9312978e+00
 -9.2352694e-01
 -3.9839116e-01
  1.0041451e-01
 -1.0199145e-01
 -6.8589705e-01
  1.0116288e-01
 -9.3388766e-01
  1.1318075e-01
 -8.7157303e-01
  1.0447242e-01
  1.6546626e+00
  1.2389961e+00
 -1.2704604e+00
 -2.0709059e-01
  2.9540646e+00
 -1.3007109e+00
  1.2204685e-01
 -3.6804709e-01
  3.2471778e+00
 -6.0491115e-01
 -1.3694683e+00
 -4.8331258e-01
  5.2286834e-01
 -2.4009743e+00
 -1.9245431e-01
 -1.7441896e+00
 -2.9768686e+00
  4.4456717e-01
  1.0193960e-01
 -5.4343617e-01
 -1.0735912e-01
  9.4409811e-01
  1.0663415e-01
 -1.0095554e-01
  1.0448223e-01
 -1.1883911e-01
 -1.4473864e-01
 -4.9395254e-01
 -1.0454776e+00
 -1.0796757e-01
 -2.7199921e-01
 -1.2727677e+00
  1.9529889e+00
 -1.1059830e+00
  1.2443439e+00
  1.0576378e+00
  1.3070073e+00
  6.2064934e-01
 -1.3421378e+00
 -1.5670006e+00
 -1.2854377e+00
 -1.5612535e+00
  5.6917155e-01
 -1.2039951e+00
 -2.3733549e+00
 -1.4763780e-01
 -5.6460661e-01
  1.7735108e+00
 -5.9093523e-01
  2.4949815e+00
 -3.6231747e-01
  1.5197924e+00
 -2.1099625e+00
 -8.5270000e-01
 -7.3956025e-01
 -2.6202759e-01
  2.2184801e+00
 -4.9240559e-01
  1.5087283e+00
  2.9869583e-01
  1.7416197e-01
  1.0441886e+00
 -1.0428380e-01
  1.6010541e+00
  2.8513119e+00
  1.0936928e-01
 -7.6853698e-01
 -1.8546377e+00
 -2.0122888e+00
 -1.0178676e-01
  1.8291738e+00
  7.3431867e-01
  4.5288950e-01
  6.4159155e-01
 -1.2973071e+00
 -1.0055111e-01
  6.0043389e-01
 -1.3003237e+00
  1.7099876e+00
  9.4305235e-01
  1.4143406e-01
 -2.0897620e+00
 -1.6975029e+00
 -1.0008988e-01
  8.8347125e-01
  1.0209031e-01
 -8.3431679e-01
  1.3213215e+00
  1.0054799e-01
  7.8389287e-01
 -1.0213656e+00
 -1.5637040e+00
  1.0595478e-01
 -3.5088110e+00
  4.2723141e+00
 -4.6110859e+00
  1.1947877e+00
 -1.4173428e+00
 -3.4029164e+00
 -7.3731035e-01
  1.4486867e+00
  1.0026587e-01
  2.2218874e-01
  1.1525032e-01
  1.1985920e-01
  1.7837968e+00
 -7.5056565e-01
  8.2330221e-01
  1.7689869e-01
 -1.0119574e-01
 -1.0222067e-01
  3.2396700e+00
  1.9615552e-01
 -3.0329309e+00
  2.2499999e-01
  2.2469361e+00
 -1.0309194e-01
  1.0229304e-01
  3.4545927e+00
  7.3759121e-01
  2.1725180e+00
 -1.0052934e-01
  3.7951696e+00
  2.0109870e+00
  1.0011372e-01
  9.9205810e-01
  1.0388528e-01
 -2.5557530e+00
 -1.0670178e-01
  1.8862733e-01
  1.3929688e+00
  1.0173128e-01
  4.6651335e+00
  1.0385827e-01
 -2.0322502e-01
  1.3897308e+00
 -8.4333283e-01
  3.1648102e-01
  1.3692743e-01
 -1.0542998e-01
  3.8224730e-01
  1.7305386e+00
 -1.7067187e-01
  3.1257706e+00
  1.8779737e-01
 -7.3013967e-01
 -1.0750265e-01
 -4.3728104e-01
 -1.2530925e+00
 -1.0798745e-01
 -1.0146586e-01
 -1.0143569e+00
  6.6985899e-01
  1.6150628e-01
  9.9205559e-01
 -1.0041158e-01
  2.4317780e-01
 -4.3909442e-01
  6.6453415e-01
 -3.4453437e-01
 -1.0286624e+00
 -1.0013898e-01
 -1.3034446e+00
 -2.4906325e+00
  2.7323502e-01
  1.2800160e-01
 -1.0137272e-01
  3.4098428e-01
 -5.2033305e-01
 -1.0159761e+00
 -1.9552665e+00
 -1.0704841e-01
  1.3922251e+00
  2.5575991e+00
  1.6788146e+00
  3.3639975e+00
 -5.1106012e-01
 -1.0100280e-01
  3.2669148e+00
  7.4964756e-01
  6.9747883e-01
 -2.6382251e+00
 -1.0332739e-01
  1.6461268e-01
 -1.0021773e-01
  1.2642623e+00
  9.6629357e-01
 -1.0005307e-01
  1.0196782e-01
 -2.7450785e-01
 -3.1417611e+00
 -4.8180187e-01
 -3.5055640e-01
 -2.7532518e+00
  1.1849290e+00
 -2.5297600e-01
 -9.1548198e-01
  1.1116640e-01
  2.5821638e-01
  1.0763119e+00
 -1.4878359e-01
 -2.1617792e+00
  1.0813075e-01
 -1.7996931e+00
  4.1302109e+00
 -4.7036514e-01
 -2.3331338e-01
  2.5768249e+00
  1.3832747e+00
  1.2003934e-01
 -2.1895021e-01
  1.5826881e-01
  4.3396747e-01
 -1.6511524e-01
  6.6503912e-01
  1.0379098e-01
 -8.6392444e-01
  1.0150100e-01
 -7.0714533e-01
 -1.0157520e-01
 -1.5144829e+00
  1.1050941e+00
 -4.5804498e-01
  6.4381105e-01
  7.6524657e-01
 -1.5656071e+00
  7.1904236e-01
 -3.3288875e-01
  1.2449522e+00
 -4.0489349e+00
 -5.7095528e-01
  9.9933583e-01
 -1.0089362e-01
  1.0059521e-01
  1.0280287e+00
  2.8847475e+00
  2.1982780e-01
 -1.0221673e-01
 -3.2817323e+00
 -4.4375128e-01
 -3.4198558e-01
 -1.2028296e+00
 -1.0360698e-01
  3.9533350e-01
  1.0005125e-01
 -6.4645708e-01
  1.1912390e+00
 -1.9929925e+00
  1.0182489e-01
 -1.3285016e+00
 -1.0405052e-01
  4.9492428e-01
  1.0118176e-01
 -2.9498008e-01
  4.3934290e-03
  4.3934290e-03
  4.3934290e-03
  4.3934290e-03
  4.3934290e-03
  4.3934290e-03
  4.3934290e-03
  4.3934290e-03
  4.3934290e-03
  4.0787585e-02
  4.0787585e-02
  4.0787585e-02
  4.0787585e-02
  4.0787585e-02
  4.0787585e-02
  4.0787585e-02
  4.0787585e-02
  4.0787585e-02
  3.3792689e-02
  3.3792689e-02
  3.3792689e-02
  3.3792689e-02
  3.3792689e-02
  3.3792689e-02
  3.3792689e-02
  3.3792689e-02
  3.3792689e-02
  1.3405086e-02
  1.3405086e-02
  1.3405086e-02
  1.3405086e-02
  1.3405086e-02
  1.3405086e-02
  1.3405086e-02
  1.3405086e-02
  1.3405086e-02
  1.2364416e-02
  1.2364416e-02
  1.2364416e-02
  1.2364416e-02
  1.2364416e-02
  1.2364416e-02
  1.2364416e-02
  1.2364416e-02
  1.2364416e-02
